<?xml version="1.0"?>
<opencv_storage>
<opencv_ml_svm>
  <format>3</format>
  <svmType>C_SVC</svmType>
  <kernel>
    <type>RBF</type>
    <gamma>5.9999999999999998e-01</gamma></kernel>
  <C>128.</C>
  <term_criteria><iterations>100000</iterations></term_criteria>
  <var_count>324</var_count>
  <class_count>2</class_count>
  <class_labels type_id="opencv-matrix">
    <rows>2</rows>
    <cols>1</cols>
    <dt>i</dt>
    <data>
      -1 1</data></class_labels>
  <sv_total>104</sv_total>
  <support_vectors>
    <_>
      1.65976256e-01 8.97527412e-02 7.97135532e-02 1.65280342e-01
      1.96669281e-01 8.13124105e-02 1.09127477e-01 1.10378787e-01
      1.59500897e-01 1.36813492e-01 1.51937291e-01 2.50527412e-01
      2.56942242e-01 2.56942242e-01 1.62678674e-01 1.84266105e-01
      1.49830088e-01 1.14218004e-01 1.74640849e-01 9.92338061e-02
      9.95284170e-02 2.52563536e-01 2.56942242e-01 8.12039971e-02
      9.05360579e-02 1.09584428e-01 1.38306662e-01 9.89688858e-02
      1.43303573e-01 2.56942242e-01 2.56942242e-01 2.56942242e-01
      1.70143425e-01 8.68713707e-02 7.52216280e-02 6.54499158e-02
      1.19556941e-01 1.34207740e-01 2.51150221e-01 2.51150221e-01
      2.51150221e-01 1.60972863e-01 1.55353308e-01 1.32165447e-01
      9.87215415e-02 1.38286769e-01 7.85651654e-02 1.50366575e-01
      2.00492814e-01 2.51150221e-01 1.23876393e-01 1.02956504e-01
      9.54567716e-02 1.22700535e-01 9.08450559e-02 1.71973422e-01
      2.51150221e-01 2.51150221e-01 2.51150221e-01 1.96569338e-01
      1.19358823e-01 1.14723347e-01 7.42819160e-02 6.37718439e-02
      6.71877116e-02 1.86327398e-01 2.13532403e-01 2.51150221e-01
      1.59117624e-01 1.10008217e-01 7.92180821e-02 5.57915755e-02
      1.55302539e-01 6.60508350e-02 1.54476270e-01 2.39921018e-01
      2.79496968e-01 1.06739536e-01 1.12372518e-01 8.70716125e-02
      1.17759340e-01 8.84099454e-02 7.30611756e-02 1.37921736e-01
      2.65628099e-01 2.79496968e-01 2.06990764e-01 1.24077581e-01
      6.39283285e-02 6.96479380e-02 7.69713819e-02 7.20498040e-02
      1.60617039e-01 2.79496968e-01 2.79496968e-01 1.49228692e-01
      1.41103119e-01 6.42409250e-02 4.49699871e-02 6.36204332e-02
      8.94853398e-02 1.14761993e-01 2.79496968e-01 2.79496968e-01
      2.79496968e-01 1.07837975e-01 4.54474427e-02 3.04236654e-02
      7.66315162e-02 5.67511618e-02 7.49234334e-02 1.95845425e-01
      3.54846478e-01 1.26663253e-01 6.97413906e-02 7.02635869e-02
      6.09611012e-02 5.49217574e-02 8.03041235e-02 1.24529906e-01
      3.52352083e-01 3.54846478e-01 1.45744458e-01 5.66467047e-02
      7.78202713e-02 4.67873029e-02 4.41665314e-02 4.06452715e-02
      4.27657142e-02 1.08860619e-01 3.54846478e-01 1.73617184e-01
      9.52151492e-02 7.44591653e-02 6.13702871e-02 4.39570248e-02
      4.01054583e-02 5.49969152e-02 3.25582892e-01 3.54846478e-01
      1.46146059e-01 9.53763574e-02 1.24481879e-01 6.34464398e-02
      6.21629432e-02 1.04645245e-01 1.78168625e-01 2.67380476e-01
      3.88601482e-01 1.15090191e-01 4.77015525e-02 8.02445188e-02
      6.08298033e-02 2.55203415e-02 3.68845016e-02 8.44711661e-02
      1.74213171e-01 3.88601482e-01 8.00855309e-02 4.13882546e-02
      4.40129898e-02 3.07059418e-02 4.72175591e-02 4.28663567e-02
      4.86325584e-02 3.31712365e-01 3.88601482e-01 1.21953890e-01
      8.62238258e-02 9.39377695e-02 7.32733607e-02 2.08051093e-02
      2.03878004e-02 3.36101465e-02 1.89232320e-01 3.88601482e-01
      7.15628490e-02 2.81245708e-02 2.36898288e-02 2.51209047e-02
      1.79862101e-02 3.65107283e-02 7.98202008e-02 3.48074526e-01
      3.48074526e-01 9.71442312e-02 5.35511896e-02 2.35974677e-02
      1.64973475e-02 2.69331578e-02 5.56155816e-02 8.28774124e-02
      3.39981437e-01 3.48074526e-01 2.54154027e-01 6.11616336e-02
      2.49235444e-02 2.03681178e-02 8.37370288e-03 1.28398240e-02
      4.68837433e-02 2.13607982e-01 3.48074526e-01 8.56795907e-02
      2.49017477e-02 2.05757469e-02 8.02424829e-03 2.72639934e-02
      3.93255204e-02 8.82357284e-02 2.70511240e-01 3.48074526e-01
      1.69863597e-01 5.91671392e-02 3.67481187e-02 2.16569211e-02
      6.75122663e-02 2.05538087e-02 2.46339925e-02 6.31761625e-02
      2.57426351e-01 1.77632913e-01 1.93479449e-01 1.13740452e-01
      7.91636854e-02 3.10375411e-02 4.74951118e-02 7.39359334e-02
      2.46739015e-01 2.57426351e-01 2.02834934e-01 1.57598630e-01
      1.12816803e-01 7.13041276e-02 2.57426351e-01 5.87789640e-02
      8.25719684e-02 8.79261792e-02 2.06778705e-01 1.74308404e-01
      2.43617430e-01 1.78785309e-01 2.57426351e-01 9.50421765e-02
      8.46391916e-02 1.14468642e-01 1.61517084e-01 2.57426351e-01
      2.57426351e-01 2.27605790e-01 1.48491621e-01 1.92327991e-01
      5.90489693e-02 7.75108188e-02 1.05844662e-01 2.82772660e-01
      2.82772660e-01 2.19486058e-01 1.96253493e-01 1.32799357e-01
      1.23112917e-01 4.75455299e-02 4.84204963e-02 5.49773425e-02
      1.99364722e-01 2.82772660e-01 9.85477939e-02 5.24742305e-02
      4.28935587e-02 5.18030189e-02 1.08066522e-01 8.95365849e-02
      1.35577574e-01 2.20437393e-01 2.82772660e-01 2.38580123e-01
      1.87440008e-01 1.22215867e-01 2.82772660e-01 1.64487213e-01
      4.60466333e-02 6.05028011e-02 1.44054279e-01 2.27924630e-01
      1.00565709e-01 6.86155856e-02 1.09004460e-01 2.58704871e-01
      5.77210598e-02 6.23637326e-02 5.72657846e-02 2.15755090e-01
      3.14357728e-01 1.33161440e-01 4.98921312e-02 5.83748408e-02
      2.27988642e-02 4.93434966e-02 4.99270074e-02 8.10476020e-02
      2.59880662e-01 3.14357728e-01 1.75137997e-01 6.71148524e-02
      5.98442964e-02 2.63129529e-02 1.82768807e-01 1.00825012e-01
      9.43185538e-02 2.39084274e-01 3.13557923e-01 1.72102898e-01
      9.43731740e-02 1.55009329e-01 1.91712528e-01 9.89084914e-02
      9.15416181e-02 1.47106439e-01 3.14357728e-01 3.14357728e-01
      1.81632087e-01 6.33702576e-02 7.73142502e-02 1.08862840e-01</_>
    <_>
      1.99792415e-01 1.56717077e-01 1.36765435e-01 2.63320267e-01
      2.63320267e-01 2.50605732e-01 1.77420586e-01 1.15409561e-01
      1.34750158e-01 1.69440493e-01 1.72168136e-01 1.58054829e-01
      2.36261323e-01 2.63320267e-01 2.39709631e-01 7.28799328e-02
      6.37886375e-02 8.06386620e-02 1.32771641e-01 1.44691765e-01
      1.32008433e-01 2.45642230e-01 2.63320267e-01 1.47965848e-01
      1.37872592e-01 7.58778453e-02 9.91810635e-02 4.15892452e-02
      5.70666865e-02 5.66583835e-02 1.42811060e-01 2.63320267e-01
      1.59493864e-01 3.68888341e-02 2.17891335e-02 2.34791338e-02
      7.84156770e-02 1.01689070e-01 1.19693637e-01 1.72805458e-01
      2.95374483e-01 2.08088964e-01 6.46980256e-02 8.73098224e-02
      6.20068125e-02 1.09400369e-01 1.23466298e-01 1.56683877e-01
      2.15056345e-01 2.95374483e-01 2.64186054e-01 1.57896638e-01
      1.15689017e-01 1.05854958e-01 5.55970818e-02 5.13144732e-02
      6.73777387e-02 1.55785248e-01 2.95374483e-01 2.58234888e-01
      5.07798940e-02 4.28942777e-02 3.43806408e-02 1.71474278e-01
      8.97303894e-02 1.64321139e-01 2.03593716e-01 2.95374483e-01
      2.64278531e-01 1.02110915e-01 6.41932487e-02 1.18275136e-01
      2.17017204e-01 1.28321752e-01 1.40286058e-01 1.86614662e-01
      2.85992473e-01 2.57740378e-01 1.64620697e-01 7.91315436e-02
      1.89149171e-01 2.13545516e-01 6.00541532e-02 3.73214334e-02
      1.70062914e-01 2.85992473e-01 1.66835487e-01 7.01448247e-02
      5.87297902e-02 2.06611261e-01 2.29637653e-01 9.31715742e-02
      1.43554419e-01 2.02393308e-01 2.85992473e-01 1.72989205e-01
      1.19637534e-01 5.59574366e-02 1.63865894e-01 5.87205477e-02
      1.54482266e-02 2.98698600e-02 1.65271789e-01 2.85992473e-01
      1.45215973e-01 3.62096578e-02 3.21274735e-02 7.34292269e-02
      1.64106786e-01 1.41548544e-01 1.74901560e-01 2.85924852e-01
      2.88623065e-01 2.06536353e-01 1.31203592e-01 1.02018058e-01
      1.34798795e-01 3.93386707e-02 2.68538501e-02 4.64828834e-02
      1.24769382e-01 2.88623065e-01 1.64668307e-01 6.57698140e-02
      3.48388217e-02 3.66337635e-02 2.00806111e-01 9.20413509e-02
      1.40283942e-01 1.39390811e-01 2.88623065e-01 2.88623065e-01
      2.05179125e-01 2.22252324e-01 2.01249704e-01 3.43061984e-02
      2.27470696e-02 3.72339822e-02 9.72118378e-02 2.88623065e-01
      1.93701491e-01 7.02253804e-02 5.17059080e-02 3.58970463e-02
      6.70776516e-02 2.31456049e-02 3.91002819e-02 9.50603113e-02
      4.04818624e-01 2.06472367e-01 7.73170069e-02 3.59837562e-02
      4.84661423e-02 1.04315378e-01 2.78381221e-02 7.60215297e-02
      1.37075081e-01 4.04818624e-01 2.42877439e-01 8.23691860e-02
      3.25190686e-02 7.71411508e-02 4.78455722e-02 1.28767388e-02
      2.71106418e-02 9.75655317e-02 4.04818624e-01 1.60234958e-01
      7.92972744e-02 5.37841879e-02 4.69020270e-02 1.03477895e-01
      2.96539590e-02 4.75454703e-02 1.50839970e-01 4.04818624e-01
      2.27631494e-01 9.22703668e-02 8.35591033e-02 9.95252281e-02
      1.19427748e-01 2.87114326e-02 6.98077828e-02 1.78746283e-01
      4.27652419e-01 1.93668082e-01 7.41695017e-02 3.06503996e-02
      9.48841348e-02 1.77477710e-02 1.01213213e-02 2.35502571e-02
      1.31853834e-01 4.27652419e-01 1.13096647e-01 1.94421578e-02
      1.19194044e-02 3.95244434e-02 1.36152953e-01 6.08165152e-02
      5.37637547e-02 2.01294988e-01 4.27652419e-01 2.16928512e-01
      5.93902841e-02 6.88840970e-02 1.29891187e-01 1.83587726e-02
      1.77664533e-02 2.73491777e-02 1.13368750e-01 3.85178506e-01
      8.79064649e-02 1.94797423e-02 1.10003352e-02 1.68577395e-02
      1.40982494e-01 7.11551309e-02 8.03900436e-02 1.06921107e-01
      2.35939607e-01 2.35806271e-01 1.26257628e-01 1.71287671e-01
      1.52287826e-01 5.65016530e-02 3.63132209e-02 2.63311844e-02
      1.04082532e-01 2.35939607e-01 2.02060267e-01 7.73080587e-02
      9.00768563e-02 7.29679763e-02 2.35939607e-01 1.24100007e-01
      1.09582826e-01 1.19197972e-01 2.10739717e-01 2.13148832e-01
      1.45411894e-01 1.93732157e-01 2.35939607e-01 1.73624411e-01
      9.79245976e-02 1.03218839e-01 1.90178901e-01 2.35939607e-01
      2.35939607e-01 2.06205025e-01 2.28825316e-01 2.21065328e-01
      5.71010485e-02 2.58518942e-02 3.42434309e-02 1.61043167e-01
      2.81506658e-01 1.85566723e-01 8.51940438e-02 8.61064196e-02
      6.24164343e-02 1.25284627e-01 4.07491364e-02 7.19794706e-02
      2.44157210e-01 2.81506658e-01 2.25678116e-01 1.50360256e-01
      1.58629417e-01 1.25324681e-01 1.30102247e-01 8.13123584e-02
      9.18861181e-02 1.79344848e-01 2.81506658e-01 2.43829668e-01
      2.27662325e-01 1.79200351e-01 1.10805564e-01 1.07259333e-01
      7.59239718e-02 1.11136869e-01 2.28578150e-01 2.81506658e-01
      1.85401455e-01 1.87368318e-01 1.51312605e-01 7.44337067e-02
      2.08753124e-01 9.79237035e-02 1.23451732e-01 2.68868119e-01
      2.68868119e-01 2.48457119e-01 1.64809525e-01 1.65469587e-01
      2.12558538e-01 8.41903761e-02 4.15185317e-02 9.41505581e-02
      1.92508057e-01 2.68868119e-01 1.11342549e-01 3.44027542e-02
      2.66220998e-02 7.12739676e-02 1.34130508e-01 1.05916440e-01
      1.57115549e-01 2.68094093e-01 2.68868119e-01 1.93812802e-01
      1.55909225e-01 1.54461443e-01 1.58187479e-01 1.38292983e-01
      5.83813302e-02 1.02646515e-01 1.53705493e-01 2.68868119e-01
      9.01316181e-02 5.54800220e-02 7.54778087e-02 1.47583514e-01</_>
    <_>
      1.76197588e-01 1.57240346e-01 1.60208121e-01 2.64227182e-01
      2.64227182e-01 2.34101385e-01 1.12517998e-01 1.17176548e-01
      1.58615947e-01 1.18102945e-01 1.65787876e-01 1.29162177e-01
      2.25613251e-01 2.64227182e-01 2.40037605e-01 8.29475522e-02
      8.36968422e-02 8.02074522e-02 1.03376165e-01 1.31254807e-01
      1.18431412e-01 2.02955619e-01 2.64227182e-01 1.55619457e-01
      6.76212758e-02 7.70577639e-02 1.41718552e-01 6.21727556e-02
      1.15392581e-01 8.69818628e-02 2.27170020e-01 2.64227182e-01
      2.26220191e-01 6.16804324e-02 4.36724648e-02 4.84855585e-02
      1.22784734e-01 1.38856784e-01 1.49728239e-01 1.54145405e-01
      2.75349200e-01 2.18203604e-01 1.34545848e-01 5.61249889e-02
      6.68465942e-02 1.67985111e-01 1.37561873e-01 1.76025763e-01
      1.24042414e-01 2.33532012e-01 1.48619652e-01 1.00403108e-01
      5.21146618e-02 1.27723187e-01 1.49535641e-01 1.48807511e-01
      1.38710618e-01 2.60868758e-01 2.75349200e-01 2.75349200e-01
      1.41866982e-01 5.24962507e-02 8.09700936e-02 1.62269235e-01
      1.31135136e-01 1.41722172e-01 1.93234071e-01 2.75349200e-01
      2.19358340e-01 1.20530114e-01 4.46831882e-02 1.18447557e-01
      2.58607060e-01 1.26278460e-01 1.18292637e-01 1.48560941e-01
      2.58607060e-01 1.08493894e-01 5.78192659e-02 1.03996374e-01
      2.58607060e-01 2.04237968e-01 1.08663499e-01 6.19239844e-02
      1.36630222e-01 2.58607060e-01 1.45446509e-01 7.68498555e-02
      1.44805461e-01 1.88858196e-01 1.80710524e-01 8.37936848e-02
      7.03269690e-02 2.36450940e-01 2.58607060e-01 1.69314355e-01
      7.00288042e-02 7.79588595e-02 1.87903300e-01 1.32988855e-01
      6.37391880e-02 3.09946723e-02 2.31362909e-01 2.58607060e-01
      2.42994502e-01 1.15940928e-01 1.09852299e-01 1.49022087e-01
      1.24980673e-01 1.29429430e-01 1.13006279e-01 2.11599290e-01
      3.23166102e-01 1.57657355e-01 1.16249539e-01 9.68350619e-02
      1.62651271e-01 5.04530594e-02 5.19695096e-02 4.04671319e-02
      2.14532822e-01 3.23166102e-01 2.21633956e-01 4.36796881e-02
      3.40868086e-02 4.30248342e-02 1.64904684e-01 1.00230150e-01
      1.31629035e-01 1.85219124e-01 3.23166102e-01 1.99261352e-01
      1.60228297e-01 1.08601786e-01 2.10004613e-01 6.59742132e-02
      2.78803688e-02 4.27996702e-02 1.73744097e-01 3.23166102e-01
      2.25492358e-01 5.55347390e-02 4.69786227e-02 6.72502965e-02
      1.10509396e-01 6.62358180e-02 5.74548207e-02 2.36949772e-01
      3.71155888e-01 2.63886482e-01 5.96856102e-02 3.67889516e-02
      7.12340698e-02 9.79136825e-02 5.28587922e-02 5.99882267e-02
      1.84048936e-01 3.71155888e-01 1.50895536e-01 5.73269501e-02
      2.42315009e-02 6.65768012e-02 1.08885065e-01 3.26090902e-02
      3.73152755e-02 2.12637722e-01 3.71155888e-01 2.15488687e-01
      8.66392404e-02 6.15486316e-02 9.01208594e-02 8.86162817e-02
      3.51441614e-02 2.98745651e-02 2.00176060e-01 3.71155888e-01
      1.47845089e-01 7.29757249e-02 4.31424342e-02 6.47300109e-02
      8.31041485e-02 4.25534211e-02 5.16514182e-02 2.75920570e-01
      3.50386530e-01 1.76970139e-01 5.24480976e-02 3.43774371e-02
      7.97256976e-02 4.04651091e-02 2.74335835e-02 2.80089229e-02
      2.52532661e-01 3.50386530e-01 2.62716740e-01 6.56890646e-02
      3.56510244e-02 5.43371625e-02 7.62945265e-02 4.06349078e-02
      5.47235869e-02 2.58242130e-01 3.50386530e-01 1.90745279e-01
      4.16487418e-02 3.24971341e-02 5.84866032e-02 5.18349037e-02
      3.86507921e-02 5.87038659e-02 2.18956321e-01 3.50386530e-01
      2.28645310e-01 3.72538641e-02 2.77553666e-02 4.50518169e-02
      1.38592958e-01 8.23604688e-02 1.34699330e-01 1.82996571e-01
      2.31480524e-01 1.53925776e-01 9.78212208e-02 7.54610226e-02
      1.70953244e-01 9.31035057e-02 6.16234243e-02 1.09590791e-01
      1.98757872e-01 2.31480524e-01 1.77793562e-01 1.18042544e-01
      9.48636979e-02 1.30238220e-01 2.31480524e-01 1.67006657e-01
      1.39550060e-01 1.53586581e-01 2.31480524e-01 1.57063022e-01
      1.52916238e-01 1.48965597e-01 2.31480524e-01 1.41181111e-01
      1.26542538e-01 1.27502888e-01 1.61943346e-01 2.31480524e-01
      1.89413145e-01 2.31480524e-01 2.15490967e-01 1.98429957e-01
      1.49270460e-01 9.10143852e-02 1.19696550e-01 2.72417068e-01
      2.72417068e-01 2.41313592e-01 2.14229718e-01 1.09149903e-01
      1.66580424e-01 1.15721665e-01 6.59057945e-02 7.55199492e-02
      2.08619103e-01 2.72417068e-01 1.33372530e-01 1.31828681e-01
      5.78154773e-02 9.57488120e-02 7.81212896e-02 1.15154333e-01
      1.12772204e-01 1.53748721e-01 2.72417068e-01 2.43208706e-01
      2.72417068e-01 2.08052158e-01 1.54002339e-01 5.68253025e-02
      6.56007901e-02 6.67268708e-02 9.86854136e-02 2.04608589e-01
      1.37988448e-01 2.06563905e-01 9.25439224e-02 8.46632197e-02
      1.64906815e-01 9.67237577e-02 1.28415465e-01 2.49507710e-01
      2.71978170e-01 1.93128511e-01 1.04034118e-01 7.83095732e-02
      1.38879970e-01 1.58092827e-01 1.13463938e-01 1.67865798e-01
      2.71978170e-01 2.71978170e-01 2.39736646e-01 1.15578935e-01
      8.89200494e-02 1.34607688e-01 1.30246669e-01 1.03132464e-01
      1.05617404e-01 1.23222254e-01 2.46400356e-01 1.38573855e-01
      1.37093455e-01 1.17553517e-01 1.44382894e-01 1.21035732e-01
      1.13708764e-01 1.55227289e-01 2.43359551e-01 2.71978170e-01
      1.42488375e-01 1.04726419e-01 9.80997384e-02 1.02690041e-01</_>
    <_>
      1.80200666e-01 1.51044562e-01 1.84174851e-01 2.65300363e-01
      2.65300363e-01 2.14566022e-01 1.00291841e-01 1.24338172e-01
      1.60868391e-01 1.32226810e-01 1.58246309e-01 1.53463006e-01
      2.24378437e-01 2.65300363e-01 2.11884320e-01 5.56255765e-02
      1.14126727e-01 9.61821675e-02 1.18236832e-01 1.24300718e-01
      1.22146718e-01 2.14187562e-01 2.65300363e-01 1.37956902e-01
      8.02245662e-02 7.51972347e-02 1.36581942e-01 8.01724941e-02
      1.06920063e-01 1.17535695e-01 2.30460465e-01 2.65300363e-01
      1.95724323e-01 4.18971069e-02 6.16299771e-02 5.86966723e-02
      1.31334454e-01 1.41168788e-01 1.58859089e-01 1.52810127e-01
      2.76953757e-01 2.05615655e-01 6.94721788e-02 9.78366584e-02
      1.01774000e-01 1.68284819e-01 1.27287179e-01 1.94612741e-01
      1.20495178e-01 1.99159488e-01 1.60977751e-01 6.82912990e-02
      5.70630431e-02 1.31283194e-01 1.51294336e-01 1.47796348e-01
      1.94954351e-01 2.49604777e-01 2.76953757e-01 2.76953757e-01
      8.46208632e-02 7.45280758e-02 1.15467481e-01 1.53373137e-01
      1.19205743e-01 1.80307537e-01 1.87827960e-01 2.76953757e-01
      2.17710331e-01 9.17689130e-02 5.25034256e-02 1.21577501e-01
      2.60854095e-01 1.05807945e-01 1.31407082e-01 1.49992034e-01
      2.60854095e-01 1.54809266e-01 6.55488819e-02 6.57708049e-02
      2.60854095e-01 2.36027986e-01 8.40935409e-02 5.97629100e-02
      1.23232201e-01 2.60854095e-01 1.38740420e-01 9.51009244e-02
      1.03109002e-01 1.94717884e-01 2.08517879e-01 8.09649751e-02
      7.94318020e-02 2.06845641e-01 2.60854095e-01 2.04856977e-01
      9.29836109e-02 5.47220185e-02 1.95195138e-01 1.58875704e-01
      5.62980920e-02 4.37231399e-02 1.45089969e-01 2.60854095e-01
      2.16862693e-01 1.54832199e-01 8.03405717e-02 1.65916115e-01
      1.36032298e-01 1.47753820e-01 1.13342799e-01 2.23869517e-01
      3.27062815e-01 1.61802366e-01 1.24065310e-01 8.83045867e-02
      1.42683566e-01 3.54483128e-02 6.78180158e-02 6.03488535e-02
      1.98233664e-01 3.27062815e-01 1.86220527e-01 3.60672101e-02
      6.41162619e-02 4.95742895e-02 1.75728574e-01 1.33392096e-01
      1.36568472e-01 1.89486265e-01 3.27062815e-01 1.96071967e-01
      1.61426350e-01 9.29230824e-02 1.86107665e-01 3.24925072e-02
      5.79659157e-02 3.98740806e-02 1.68927267e-01 3.27062815e-01
      2.06674203e-01 4.96130511e-02 1.02083266e-01 5.77822961e-02
      8.76211673e-02 8.75697508e-02 1.24199554e-01 1.91641688e-01
      3.95590305e-01 2.14537755e-01 5.81474490e-02 6.94589615e-02
      8.88738334e-02 8.60657170e-02 6.27514496e-02 1.10542223e-01
      1.41637310e-01 3.95590305e-01 1.22826234e-01 5.68757132e-02
      3.14648412e-02 7.49008954e-02 8.93007070e-02 6.14861511e-02
      6.35444000e-02 1.84648320e-01 3.95590305e-01 1.72393471e-01
      5.26533648e-02 1.48849905e-01 9.02970806e-02 1.06895745e-01
      3.61562334e-02 7.07752854e-02 1.39906108e-01 3.95590305e-01
      1.05463110e-01 3.69394645e-02 7.25294650e-02 6.44316673e-02
      7.14880228e-02 7.88719207e-02 9.62151885e-02 2.50350565e-01
      3.50107104e-01 1.67327151e-01 8.34550261e-02 4.68415730e-02
      7.72736520e-02 4.71314192e-02 5.82399406e-02 6.28633648e-02
      1.92895979e-01 3.50107104e-01 2.45893940e-01 9.95763540e-02
      4.62134033e-02 5.30645810e-02 9.44631472e-02 4.90045920e-02
      1.07112348e-01 2.53761739e-01 3.50107104e-01 1.67526051e-01
      6.03955798e-02 2.80735176e-02 5.07363044e-02 5.51699698e-02
      5.83829246e-02 7.13778287e-02 2.54033774e-01 3.50107104e-01
      2.31654420e-01 5.15020452e-02 3.36628817e-02 4.36722152e-02
      1.34518221e-01 1.01076834e-01 1.12272888e-01 1.77660063e-01
      2.40437269e-01 1.57277197e-01 1.01137899e-01 5.78876808e-02
      1.59755230e-01 7.79015720e-02 9.22854543e-02 7.07831755e-02
      1.75845847e-01 2.40437269e-01 2.11137757e-01 1.27606824e-01
      1.14610739e-01 9.34875682e-02 2.40437269e-01 1.58347011e-01
      1.12748906e-01 1.47670865e-01 2.40437269e-01 1.68241084e-01
      1.72605217e-01 1.37459487e-01 2.40437269e-01 1.66689411e-01
      1.21272095e-01 7.56280869e-02 1.48595333e-01 2.40437269e-01
      2.08877385e-01 2.40437269e-01 2.06633464e-01 1.73632085e-01
      9.19633582e-02 1.07116945e-01 1.01515211e-01 2.87319511e-01
      2.87319511e-01 2.33964801e-01 1.52309716e-01 2.20112115e-01
      1.09582484e-01 1.01245120e-01 5.51541187e-02 8.45606178e-02
      1.99441910e-01 2.87319511e-01 1.14151128e-01 6.11364357e-02
      1.09213687e-01 8.26017037e-02 6.59476221e-02 9.23906192e-02
      7.76967034e-02 1.73804954e-01 2.87319511e-01 2.33239353e-01
      2.87319511e-01 2.53715128e-01 1.05618067e-01 4.53332104e-02
      5.18909357e-02 4.76470478e-02 1.14152260e-01 2.13311851e-01
      1.43333137e-01 1.97912529e-01 1.01581439e-01 7.31778666e-02
      1.89043611e-01 9.43800509e-02 1.54846683e-01 2.66384989e-01
      2.66384989e-01 1.81156367e-01 9.57700685e-02 5.83879352e-02
      1.29255936e-01 1.61430925e-01 1.24394320e-01 1.53800815e-01
      2.66384989e-01 2.66384989e-01 2.30302706e-01 1.02671564e-01
      7.99585506e-02 1.26055405e-01 1.35926604e-01 9.64009836e-02
      1.03509545e-01 1.57368287e-01 2.33843073e-01 1.75970405e-01
      1.20002292e-01 8.66583884e-02 1.30122408e-01 1.14708759e-01
      9.74242836e-02 1.60158455e-01 2.66384989e-01 2.66384989e-01
      1.68482259e-01 9.31738764e-02 8.87243301e-02 9.38749462e-02</_>
    <_>
      1.91374242e-01 1.49061888e-01 1.72764584e-01 2.48091415e-01
      2.65100688e-01 2.13097125e-01 1.24658458e-01 1.17906466e-01
      1.60873622e-01 1.27246425e-01 1.54884547e-01 1.52126417e-01
      2.10672826e-01 2.65100688e-01 1.88757986e-01 1.30672961e-01
      8.57323036e-02 8.71127695e-02 1.31873652e-01 1.23219736e-01
      1.13659658e-01 2.02896506e-01 2.65100688e-01 1.50641263e-01
      7.56773576e-02 6.95291683e-02 1.30486682e-01 8.16361904e-02
      1.05117254e-01 1.25160202e-01 2.38430470e-01 2.65100688e-01
      2.23940596e-01 9.02215242e-02 4.94994670e-02 4.47925851e-02
      1.10204503e-01 1.45665988e-01 1.65507555e-01 1.56381637e-01
      2.75118828e-01 1.81522459e-01 1.59508780e-01 6.81752712e-02
      7.90949762e-02 1.65353090e-01 1.44765079e-01 1.66626915e-01
      1.16356805e-01 1.97945520e-01 1.15596808e-01 1.03984870e-01
      5.25835752e-02 1.19556233e-01 1.52529478e-01 1.53446481e-01
      1.87258467e-01 2.75118828e-01 2.75118828e-01 2.75118828e-01
      1.65128663e-01 9.07957479e-02 9.10816267e-02 1.53986335e-01
      1.36793301e-01 1.19747557e-01 2.10319132e-01 2.75118828e-01
      1.87409744e-01 1.23998985e-01 6.91227838e-02 1.10965669e-01
      2.61765480e-01 1.45209685e-01 1.06113024e-01 1.42605484e-01
      2.61765480e-01 1.27401516e-01 6.16217665e-02 1.01110697e-01
      2.61765480e-01 1.97915912e-01 1.04928136e-01 5.35991006e-02
      1.11454017e-01 2.22946346e-01 1.42154112e-01 7.92008415e-02
      1.12561598e-01 1.70964345e-01 2.10325554e-01 9.68723148e-02
      5.25948294e-02 2.45925829e-01 2.61765480e-01 1.94262788e-01
      1.00072898e-01 1.05477899e-01 2.11490452e-01 1.41696766e-01
      6.80014566e-02 3.07765454e-02 1.84079692e-01 2.61765480e-01
      2.26843059e-01 1.40321374e-01 1.04069620e-01 1.62166640e-01
      1.39810547e-01 1.35785252e-01 1.06059991e-01 2.17564091e-01
      3.34793031e-01 1.56798542e-01 1.05262160e-01 8.52226689e-02
      1.24042727e-01 8.01419839e-02 4.90925349e-02 4.47839275e-02
      2.09868893e-01 3.34793031e-01 2.10344523e-01 4.23749313e-02
      3.68229337e-02 5.88888116e-02 1.99496672e-01 1.32280096e-01
      1.29803732e-01 1.66817293e-01 3.34793031e-01 1.81905508e-01
      1.38376117e-01 1.07055947e-01 1.53479099e-01 8.64909291e-02
      3.51680182e-02 2.73538027e-02 1.75710738e-01 3.34793031e-01
      2.15545446e-01 5.55978231e-02 4.62271236e-02 8.01411644e-02
      1.29278719e-01 6.47408292e-02 7.77798221e-02 2.28898540e-01
      3.97503793e-01 2.26684988e-01 6.38201311e-02 4.70549539e-02
      8.90258774e-02 8.26385692e-02 5.66213802e-02 6.54342994e-02
      1.53589621e-01 3.97503793e-01 1.03848591e-01 5.25865778e-02
      3.19353379e-02 6.08223975e-02 1.25260323e-01 2.60071009e-02
      4.62955981e-02 2.00231031e-01 3.97503793e-01 1.84004664e-01
      8.59290957e-02 6.12121485e-02 1.15633376e-01 7.89977983e-02
      2.40756031e-02 5.56097440e-02 1.33732691e-01 3.97503793e-01
      8.89944360e-02 5.55967391e-02 3.86746414e-02 7.48531744e-02
      5.78365549e-02 5.97754754e-02 6.86336309e-02 2.86486834e-01
      3.41565013e-01 1.85237497e-01 7.40545392e-02 5.34159057e-02
      7.42601454e-02 3.69099043e-02 4.19917032e-02 4.69975248e-02
      2.27033287e-01 3.41565013e-01 2.74625868e-01 8.60387757e-02
      4.34743538e-02 6.02818131e-02 7.39115924e-02 6.89075068e-02
      9.75945666e-02 2.19909549e-01 3.41565013e-01 2.00102150e-01
      3.48979756e-02 3.33454981e-02 5.16125783e-02 5.95951714e-02
      6.79482445e-02 9.14866626e-02 2.29564995e-01 3.41565013e-01
      2.39605293e-01 2.88834572e-02 2.68390514e-02 3.86466831e-02
      1.57409996e-01 1.09744802e-01 1.28206000e-01 1.70560360e-01
      2.36258030e-01 1.44527093e-01 9.71310735e-02 7.35017881e-02
      1.43226579e-01 1.20257579e-01 1.09458581e-01 8.93165320e-02
      1.88519344e-01 2.36258030e-01 2.02943787e-01 1.19984664e-01
      9.34880674e-02 9.99450088e-02 2.13789418e-01 1.45457178e-01
      1.40481651e-01 1.60559803e-01 2.36258030e-01 1.80454597e-01
      1.48103058e-01 1.56192333e-01 2.22277299e-01 1.59832835e-01
      1.44820750e-01 1.21018976e-01 1.60338625e-01 2.36258030e-01
      2.11147502e-01 2.36258030e-01 2.06233799e-01 1.44984752e-01
      1.85881734e-01 7.95472488e-02 1.09532155e-01 2.74886042e-01
      2.74886042e-01 2.28441969e-01 1.99250981e-01 1.56957269e-01
      1.52534395e-01 1.13773562e-01 4.21590917e-02 9.15439725e-02
      1.85015798e-01 2.74886042e-01 9.41393226e-02 9.41193476e-02
      8.27332661e-02 1.09853722e-01 1.31663308e-01 9.49754566e-02
      9.91278738e-02 1.61420867e-01 2.74886042e-01 2.40141839e-01
      2.74886042e-01 2.47946084e-01 1.20792747e-01 6.53375089e-02
      3.95359471e-02 5.68325892e-02 9.30192471e-02 2.16219530e-01
      1.38498828e-01 1.79367706e-01 1.17810249e-01 8.44667926e-02
      2.09196776e-01 1.49070010e-01 1.62411734e-01 2.22943202e-01
      2.52587020e-01 1.99884996e-01 6.27175570e-02 8.65517780e-02
      1.62700981e-01 2.04242915e-01 1.42431408e-01 1.70274779e-01
      2.52587020e-01 2.52587020e-01 2.22971037e-01 8.30041394e-02
      9.24342051e-02 1.53599858e-01 1.56708091e-01 8.84924531e-02
      8.29166472e-02 1.26191914e-01 2.52587020e-01 1.48715436e-01
      1.11731775e-01 1.17483005e-01 1.68611154e-01 1.44989997e-01
      6.93086684e-02 1.17158994e-01 1.89619049e-01 2.52587020e-01
      1.66155607e-01 1.09210238e-01 1.03839569e-01 1.44827709e-01</_>
    <_>
      1.74160331e-01 1.53033450e-01 1.76752448e-01 2.32328236e-01
      2.72789389e-01 2.09672734e-01 1.18788414e-01 1.26159057e-01
      1.83011398e-01 1.29620790e-01 1.63245082e-01 1.51753381e-01
      1.80760562e-01 2.72789389e-01 2.07089752e-01 9.57578719e-02
      7.30613172e-02 8.29636604e-02 1.33537322e-01 1.22935586e-01
      1.14685886e-01 1.93920091e-01 2.72789389e-01 1.50058419e-01
      8.50283727e-02 7.72871077e-02 1.31533369e-01 7.29851872e-02
      1.38943553e-01 1.13040090e-01 2.14599252e-01 2.72789389e-01
      2.43787721e-01 8.49068835e-02 3.21999751e-02 4.32340577e-02
      1.35965303e-01 1.40189812e-01 1.59911469e-01 1.39502674e-01
      2.81303167e-01 2.19815001e-01 1.08492300e-01 4.75879870e-02
      6.69225305e-02 1.76807508e-01 1.23269878e-01 1.75500616e-01
      1.07673757e-01 1.90606266e-01 1.37707546e-01 7.22443238e-02
      4.93285470e-02 1.29625291e-01 1.26126200e-01 1.90604270e-01
      1.88218147e-01 2.68505931e-01 2.81303167e-01 2.81303167e-01
      1.61027342e-01 4.62403670e-02 8.84657502e-02 1.40796095e-01
      1.27092987e-01 1.39447480e-01 1.77995190e-01 2.81303167e-01
      2.20395952e-01 1.08798578e-01 4.92660627e-02 1.28305107e-01
      2.63570637e-01 1.44363880e-01 1.47569954e-01 1.12349525e-01
      2.36168161e-01 1.48633078e-01 8.47202316e-02 1.30239353e-01
      2.63570637e-01 1.90939933e-01 1.27943084e-01 7.30831474e-02
      8.03770870e-02 1.54739767e-01 1.49510607e-01 1.07853904e-01
      1.19460493e-01 1.47730887e-01 1.96154624e-01 9.41860378e-02
      7.85709620e-02 2.00429380e-01 2.63570637e-01 2.63570637e-01
      1.23254605e-01 1.11034825e-01 2.26675272e-01 1.10488385e-01
      8.49850401e-02 5.73649853e-02 1.28496215e-01 2.63570637e-01
      2.63570637e-01 1.67609498e-01 1.04358673e-01 1.17628664e-01
      1.51062444e-01 1.26499012e-01 9.92718041e-02 2.24552482e-01
      3.26191127e-01 1.43737391e-01 1.27379134e-01 9.44168270e-02
      1.13508992e-01 5.55277728e-02 6.62306249e-02 4.11925763e-02
      2.07451195e-01 3.26191127e-01 2.27755606e-01 4.54718806e-02
      3.12280599e-02 5.56735583e-02 2.00197354e-01 1.43727213e-01
      1.09415516e-01 1.86923876e-01 3.26191127e-01 1.59933448e-01
      1.76589817e-01 1.11861072e-01 1.46919221e-01 7.31409565e-02
      3.84098180e-02 2.89018378e-02 1.91311270e-01 3.26191127e-01
      2.14829728e-01 5.57593815e-02 3.94278057e-02 9.77231637e-02
      8.76056328e-02 9.44846347e-02 9.49585661e-02 2.14450985e-01
      3.85415047e-01 2.53622800e-01 7.33569637e-02 3.49675715e-02
      9.16448236e-02 6.78990707e-02 6.36341572e-02 8.37274790e-02
      1.39873892e-01 3.85415047e-01 1.20516539e-01 5.43815307e-02
      2.59838402e-02 7.01334700e-02 1.16552226e-01 3.78109515e-02
      5.33592142e-02 2.14396939e-01 3.85415047e-01 2.03290984e-01
      8.69927555e-02 4.40128036e-02 1.48130596e-01 8.31290632e-02
      2.69801319e-02 6.63480461e-02 1.46969870e-01 3.85415047e-01
      9.93770361e-02 5.40627427e-02 2.52214558e-02 9.51185524e-02
      9.23089460e-02 4.03491445e-02 5.67987189e-02 2.34532773e-01
      3.49152356e-01 2.29659840e-01 7.56536946e-02 3.31805646e-02
      7.71205202e-02 4.19228934e-02 3.30572426e-02 4.11802083e-02
      1.66465923e-01 3.49152356e-01 2.99145788e-01 9.39046815e-02
      3.31329219e-02 3.72571237e-02 1.03846632e-01 3.14605534e-02
      7.22105056e-02 2.62520134e-01 3.49152356e-01 1.72505111e-01
      4.72067147e-02 3.35297063e-02 9.59388316e-02 7.36796558e-02
      4.30144630e-02 6.75759241e-02 2.47525066e-01 3.49152356e-01
      1.82026446e-01 4.61729467e-02 3.78654823e-02 6.24733977e-02
      1.59300193e-01 1.14106961e-01 1.09183602e-01 1.81968510e-01
      2.40768194e-01 1.30994946e-01 1.17619045e-01 6.27687648e-02
      1.47627831e-01 1.16253532e-01 9.97224525e-02 1.04056351e-01
      1.98050097e-01 2.40768194e-01 2.02584639e-01 1.23566158e-01
      8.53588432e-02 1.37290716e-01 1.90423280e-01 1.14226148e-01
      1.02948822e-01 1.99806750e-01 2.40768194e-01 1.73899382e-01
      1.55545652e-01 1.47561610e-01 2.08092406e-01 1.28362894e-01
      1.23463005e-01 1.23426847e-01 1.64335430e-01 2.40768194e-01
      2.26285458e-01 2.40768194e-01 2.02819094e-01 1.61215812e-01
      1.61576450e-01 1.01523906e-01 1.21141046e-01 2.63606757e-01
      2.63606757e-01 2.63606757e-01 1.81616217e-01 1.21070057e-01
      2.11306185e-01 1.07505985e-01 4.67617735e-02 8.42664167e-02
      2.09091499e-01 2.63606757e-01 1.32799223e-01 7.45037049e-02
      6.29352927e-02 1.27193138e-01 9.83012021e-02 1.05308630e-01
      1.05977185e-01 1.80721655e-01 2.56256133e-01 2.63606757e-01
      2.63606757e-01 2.39708275e-01 1.32143736e-01 6.11575432e-02
      4.42171730e-02 5.28735965e-02 1.14763945e-01 1.64557919e-01
      1.57467753e-01 1.78384274e-01 1.16375118e-01 7.09074587e-02
      2.24347487e-01 7.59852752e-02 1.07829534e-01 2.51202881e-01
      2.51202881e-01 1.53480545e-01 9.80799571e-02 1.14074431e-01
      2.19125390e-01 1.90142214e-01 9.38845873e-02 1.39930055e-01
      2.51202881e-01 2.51202881e-01 1.50241807e-01 1.27508804e-01
      1.49694368e-01 1.66724533e-01 1.48501456e-01 7.13438392e-02
      8.26392323e-02 1.43751606e-01 2.36768931e-01 1.38727933e-01
      1.55693159e-01 1.41181707e-01 1.52180716e-01 1.17946029e-01
      6.32475764e-02 1.24625795e-01 2.42430910e-01 2.51202881e-01
      1.34470716e-01 1.54911146e-01 1.54190749e-01 1.05398305e-01</_>
    <_>
      2.59609580e-01 2.59609580e-01 1.02832094e-01 1.22009262e-01
      1.97367430e-01 1.30117580e-01 1.19748957e-01 1.46460310e-01
      1.58056751e-01 1.82658747e-01 1.97592556e-01 1.06278248e-01
      2.43753389e-01 2.59609580e-01 1.20037079e-01 1.13652050e-01
      1.48233429e-01 1.69137135e-01 1.84869617e-01 1.97872132e-01
      8.99685249e-02 1.91392809e-01 2.59609580e-01 1.43983230e-01
      8.40705782e-02 4.86925952e-02 9.67013761e-02 7.03247786e-02
      1.33084744e-01 9.53091308e-02 2.59609580e-01 2.59609580e-01
      1.80262402e-01 5.40077984e-02 5.10763526e-02 5.04299141e-02
      1.36264533e-01 1.31745115e-01 1.68438911e-01 3.04271340e-01
      3.04271340e-01 1.53887063e-01 1.18117198e-01 1.59060702e-01
      1.68337390e-01 1.13275893e-01 1.41084507e-01 1.21661536e-01
      1.93771750e-01 2.25785285e-01 1.01144254e-01 5.79917580e-02
      6.84235618e-02 6.19797446e-02 8.41152072e-02 1.58588901e-01
      2.03847155e-01 3.04271340e-01 3.04271340e-01 2.85204142e-01
      1.23341925e-01 1.12618096e-01 8.22038874e-02 4.31041233e-02
      5.57010919e-02 7.24384859e-02 1.31701693e-01 2.74540126e-01
      9.82415304e-02 6.94897398e-02 6.04663789e-02 4.52906229e-02
      2.86088228e-01 2.52970308e-01 1.75098166e-01 1.25902683e-01
      2.86088228e-01 1.84612840e-01 8.48877653e-02 8.28078985e-02
      1.40267923e-01 1.49742573e-01 8.61905813e-02 5.65667935e-02
      8.71900469e-02 2.86088228e-01 2.86088228e-01 7.75151327e-02
      5.42057343e-02 9.62518156e-02 6.84454143e-02 5.84010184e-02
      8.93409178e-02 1.78158745e-01 2.86088228e-01 1.44985408e-01
      5.81002459e-02 3.96074355e-02 6.70878589e-02 4.03379165e-02
      5.02337031e-02 1.23989873e-01 2.83433199e-01 2.86088228e-01
      2.86088228e-01 7.45733306e-02 3.77376713e-02 4.35723364e-02
      9.93664414e-02 3.00778300e-02 6.14863187e-02 2.07116723e-01
      3.57854664e-01 1.78949803e-01 7.96789750e-02 3.24861035e-02
      1.07441306e-01 2.38702428e-02 5.00669666e-02 8.86773318e-02
      2.34736651e-01 3.57854664e-01 2.31456742e-01 4.91958968e-02
      3.00089009e-02 1.40808905e-02 7.80261084e-02 2.57408489e-02
      6.03470206e-02 1.45572484e-01 3.57854664e-01 2.15914100e-01
      7.31592774e-02 7.82020018e-02 1.14896215e-01 1.92025360e-02
      2.03156881e-02 6.15167730e-02 2.48922676e-01 3.57854664e-01
      2.66013056e-01 9.63112712e-02 4.85421158e-02 2.88098734e-02
      3.54018137e-02 7.44745955e-02 1.04642376e-01 2.62521476e-01
      3.72938871e-01 2.55265176e-01 6.72291741e-02 5.24484403e-02
      2.23049559e-02 1.61403678e-02 2.28359159e-02 3.48106585e-02
      1.14256583e-01 3.72938871e-01 1.02510042e-01 3.58439498e-02
      2.64869984e-02 1.44789824e-02 3.53357233e-02 3.02248709e-02
      7.31312260e-02 2.61025161e-01 3.72938871e-01 3.31000924e-01
      1.40737787e-01 6.80185407e-02 5.84985949e-02 1.92014575e-02
      1.55696142e-02 3.83282825e-02 1.17480636e-01 3.72938871e-01
      1.44500747e-01 4.28701602e-02 1.93597097e-02 2.35664118e-02
      1.23370998e-02 1.16315139e-02 2.59227790e-02 1.14628538e-01
      3.47914606e-01 1.66333750e-01 2.71163862e-02 8.63883924e-03
      1.19062373e-02 1.73292495e-02 1.91041529e-02 5.54317459e-02
      1.26514331e-01 3.47914606e-01 3.47914606e-01 8.97338986e-02
      2.17337534e-02 2.07067039e-02 1.15364734e-02 1.30345505e-02
      1.83621589e-02 1.41389027e-01 3.47914606e-01 2.16545194e-01
      2.87013501e-02 5.68290893e-03 6.20145584e-03 1.21034551e-02
      1.33398715e-02 3.57039124e-02 3.47914606e-01 3.47914606e-01
      3.47914606e-01 8.62679482e-02 1.56767219e-02 9.61999316e-03
      1.10816762e-01 6.55724034e-02 7.20430613e-02 1.23405151e-01
      2.71686643e-01 2.00806856e-01 1.41125932e-01 1.41184479e-01
      1.17399335e-01 3.70783582e-02 4.16752733e-02 5.58309481e-02
      2.67160386e-01 2.71686643e-01 2.71686643e-01 2.08631322e-01
      8.91510844e-02 6.83943778e-02 1.39399529e-01 1.24239661e-01
      1.29127949e-01 1.37331828e-01 1.93513140e-01 1.66168243e-01
      1.70174062e-01 1.61742374e-01 1.59624651e-01 7.62914047e-02
      8.47121626e-02 9.58542526e-02 1.98524386e-01 2.71686643e-01
      2.69770414e-01 2.32780293e-01 1.26547143e-01 1.29171893e-01
      4.08736505e-02 5.30045778e-02 8.43960419e-02 2.82934368e-01
      2.82934368e-01 2.82934368e-01 2.80478626e-01 9.05389860e-02
      7.57040307e-02 3.49586941e-02 3.22577395e-02 4.81061265e-02
      1.38397694e-01 2.82934368e-01 1.70358524e-01 8.19719732e-02
      3.74089144e-02 4.77162786e-02 7.83362538e-02 8.90328214e-02
      1.17526866e-01 2.82934368e-01 2.82934368e-01 2.71896154e-01
      2.27131173e-01 1.07903726e-01 1.13561280e-01 1.22516498e-01
      4.33206297e-02 5.35819903e-02 1.41944006e-01 2.77178615e-01
      1.06892899e-01 8.72552320e-02 7.61510283e-02 1.73232749e-01
      4.85079549e-02 3.85225862e-02 3.89656015e-02 1.87609985e-01
      3.22064370e-01 1.50374115e-01 4.15631160e-02 2.46040411e-02
      5.07256985e-02 3.14902626e-02 3.51849757e-02 1.11242384e-01
      3.22064370e-01 3.22064370e-01 2.51193434e-01 5.01475148e-02
      1.76143199e-02 3.25654075e-02 1.79285541e-01 5.69053441e-02
      8.61292109e-02 1.44274175e-01 1.97990865e-01 8.42483267e-02
      6.78855255e-02 7.07607493e-02 3.22064370e-01 1.02843948e-01
      7.21079856e-02 2.27725640e-01 3.22064370e-01 3.22064370e-01
      8.33089724e-02 4.68437374e-02 4.20599170e-02 1.63408116e-01</_>
    <_>
      2.94433028e-01 2.94433028e-01 1.55325025e-01 1.25387371e-01
      2.15975612e-01 1.16320737e-01 8.66676643e-02 1.31448641e-01
      1.78447589e-01 1.95175692e-01 2.53666937e-01 1.52261779e-01
      2.04623774e-01 2.94433028e-01 1.06985979e-01 8.31465945e-02
      1.50604650e-01 1.01232909e-01 1.42871365e-01 1.19849175e-01
      7.99306184e-02 1.72877833e-01 2.94433028e-01 1.34599000e-01
      5.73741421e-02 4.04646583e-02 1.17079124e-01 4.59480807e-02
      9.09475684e-02 6.92579001e-02 2.18747854e-01 2.94433028e-01
      1.26268074e-01 2.99702436e-02 1.42855644e-02 1.67633239e-02
      1.34668082e-01 1.51712909e-01 1.93424493e-01 2.78551966e-01
      3.35973293e-01 1.73527122e-01 9.28617790e-02 8.28836784e-02
      6.61114231e-02 8.82247165e-02 8.15532207e-02 9.78492275e-02
      1.06154487e-01 1.90701544e-01 1.11294776e-01 5.54426499e-02
      4.27409038e-02 5.01248911e-02 9.19254720e-02 1.47012651e-01
      1.74927503e-01 3.35973293e-01 3.35973293e-01 2.59161681e-01
      7.69915655e-02 3.65814939e-02 6.72144219e-02 7.94158652e-02
      1.00046732e-01 1.19115688e-01 1.74975812e-01 3.35973293e-01
      1.82320878e-01 7.85977691e-02 4.21750546e-02 7.49976858e-02
      2.12428227e-01 1.81364655e-01 1.70552164e-01 1.30845964e-01
      2.28072166e-01 1.84599921e-01 9.30810347e-02 1.64735794e-01
      1.63577378e-01 2.21577421e-01 1.76939845e-01 1.58015862e-01
      1.33189738e-01 2.42173865e-01 2.03545675e-01 9.00176615e-02
      1.69619918e-01 1.53796017e-01 7.80725330e-02 7.23195374e-02
      1.17854625e-01 2.05524147e-01 2.42173865e-01 2.42173865e-01
      1.16131030e-01 8.11285824e-02 1.01004556e-01 9.41131040e-02
      7.97649920e-02 1.51423320e-01 2.10899025e-01 2.42173865e-01
      2.42173865e-01 7.15218410e-02 9.23607945e-02 1.11301683e-01
      8.87587667e-02 2.78177187e-02 4.87137660e-02 1.79177418e-01
      3.84222478e-01 1.89262033e-01 6.15209825e-02 4.14817408e-02
      1.09766908e-01 3.18614282e-02 7.09266886e-02 5.36546819e-02
      2.18842879e-01 3.84222478e-01 1.84634537e-01 2.81724259e-02
      1.77176986e-02 2.48131044e-02 8.42881799e-02 3.55729051e-02
      8.36131051e-02 1.24288894e-01 3.84222478e-01 2.54094481e-01
      4.86228354e-02 5.45272604e-02 1.22774951e-01 2.18613278e-02
      4.99130823e-02 4.31207083e-02 1.99014559e-01 3.84222478e-01
      2.27457300e-01 5.04886918e-02 3.06723323e-02 3.27701792e-02
      4.41384092e-02 8.28814805e-02 6.40667751e-02 2.07725838e-01
      4.15392607e-01 2.19623581e-01 3.20097618e-02 2.30475254e-02
      4.24549542e-02 3.07151917e-02 4.09449376e-02 3.92224751e-02
      1.21125691e-01 4.15392607e-01 1.57387286e-01 2.97370050e-02
      2.02062037e-02 3.76996771e-02 4.05153222e-02 4.85912487e-02
      3.44402008e-02 1.73573524e-01 4.15392607e-01 2.41455197e-01
      8.57155547e-02 5.64872697e-02 4.64354120e-02 3.87956277e-02
      2.96029951e-02 2.74940226e-02 9.12779719e-02 4.15392607e-01
      1.66845396e-01 5.56428097e-02 4.15995941e-02 3.49674299e-02
      2.50069182e-02 2.10266951e-02 4.48839031e-02 1.74938783e-01
      3.72919232e-01 2.35781655e-01 4.41734381e-02 1.82017460e-02
      3.22342254e-02 2.26154104e-02 1.90432519e-02 5.13164252e-02
      1.21143132e-01 3.72919232e-01 2.56022006e-01 2.94397753e-02
      1.29401824e-02 2.39572357e-02 2.80132275e-02 2.78633498e-02
      5.63506298e-02 2.05727786e-01 3.72919232e-01 2.96907932e-01
      3.54668647e-02 1.77356880e-02 1.65333450e-02 1.84868034e-02
      1.59657635e-02 5.01179546e-02 2.16476202e-01 3.72919232e-01
      2.70104617e-01 3.62409279e-02 1.34094721e-02 2.40803137e-02
      6.27893433e-02 6.71164468e-02 1.01454362e-01 9.18693468e-02
      3.31835091e-01 1.78603142e-01 9.69688222e-02 1.04919538e-01
      1.01318061e-01 1.40560474e-02 1.46627584e-02 3.29780169e-02
      1.89613625e-01 3.31835091e-01 2.34867588e-01 1.07400320e-01
      6.44762740e-02 4.53128926e-02 1.03498884e-01 1.40369728e-01
      1.36770651e-01 8.76346380e-02 2.66468018e-01 1.53559566e-01
      1.52948394e-01 1.64047971e-01 1.57289043e-01 6.46179989e-02
      6.24735653e-02 7.77338818e-02 1.92182645e-01 3.31835091e-01
      3.30710977e-01 1.73071265e-01 1.75138965e-01 1.36891559e-01
      3.72844823e-02 2.13403869e-02 3.23932841e-02 2.42833957e-01
      3.14376593e-01 2.63088912e-01 2.18280017e-01 8.05160776e-02
      4.95666191e-02 4.30519953e-02 2.60284524e-02 3.78390700e-02
      1.42596126e-01 3.14376593e-01 1.73115179e-01 1.38006464e-01
      5.91659881e-02 3.94230559e-02 4.33162674e-02 3.87420096e-02
      7.26296008e-02 3.14376593e-01 3.14376593e-01 2.99931645e-01
      1.88766330e-01 1.02205589e-01 5.90925813e-02 3.96311097e-02
      2.61115618e-02 5.39158359e-02 2.32867107e-01 2.97235131e-01
      1.51605129e-01 9.89097357e-02 6.80923238e-02 4.66536283e-02
      3.13877761e-02 3.39779109e-02 1.06092103e-01 2.46452630e-01
      2.88260907e-01 2.67565489e-01 5.62081821e-02 2.95821764e-02
      2.59198453e-02 2.94061787e-02 3.37797850e-02 1.02014549e-01
      2.88260907e-01 2.88260907e-01 1.83478102e-01 5.78058437e-02
      3.40510421e-02 4.21238169e-02 1.14407875e-01 4.95657362e-02
      1.08611181e-01 2.16258198e-01 2.88260907e-01 2.02002347e-01
      7.97780305e-02 1.17167749e-01 1.93957448e-01 1.04908496e-01
      5.98512031e-02 1.54796466e-01 2.87135959e-01 2.88260907e-01
      1.28234684e-01 8.51653516e-02 9.45199877e-02 2.29364768e-01</_>
    <_>
      1.76302239e-01 1.32195055e-01 1.17087178e-01 1.96839377e-01
      2.10621506e-01 1.52426034e-01 1.92626655e-01 2.27839530e-01
      1.95235789e-01 1.87642202e-01 1.40620098e-01 1.31314203e-01
      2.00235590e-01 2.08595514e-01 1.53190985e-01 1.81556255e-01
      1.93508044e-01 2.10313648e-01 1.16152667e-01 1.12176903e-01
      9.67898071e-02 2.32523873e-01 2.39376888e-01 1.27316326e-01
      9.97048691e-02 1.31492227e-01 1.30640522e-01 1.05494082e-01
      1.16325878e-01 9.92268547e-02 2.39376888e-01 2.39376888e-01
      1.82331115e-01 6.72903806e-02 7.31535628e-02 9.15028602e-02
      2.47486338e-01 2.35703766e-01 2.47486338e-01 2.47486338e-01
      2.23750308e-01 1.70004830e-01 1.86609492e-01 2.37959921e-01
      2.47486338e-01 1.08281843e-01 1.30000800e-01 1.63871691e-01
      9.87868235e-02 8.03132579e-02 5.93910217e-02 5.74738644e-02
      7.65208080e-02 1.03807151e-01 1.90096989e-01 1.81578949e-01
      1.72548369e-01 2.47486338e-01 2.47486338e-01 2.47486338e-01
      1.19389303e-01 1.08065687e-01 1.32090002e-01 9.13638771e-02
      6.49759099e-02 6.64206222e-02 7.34386742e-02 2.37386465e-01
      9.97506082e-02 7.55067915e-02 5.01544736e-02 9.22294185e-02
      1.99374065e-01 1.85588807e-01 1.56629264e-01 7.43860975e-02
      2.85994262e-01 2.85994262e-01 1.22517549e-01 8.02957267e-02
      1.37335330e-01 5.69515005e-02 5.15927412e-02 4.99574356e-02
      5.21433875e-02 2.85994262e-01 2.85994262e-01 9.91793498e-02
      4.94316444e-02 6.64706901e-02 1.59121618e-01 1.01473257e-01
      1.10003330e-01 1.56409323e-01 2.85994262e-01 2.85994262e-01
      1.80210635e-01 1.02433160e-01 1.76304638e-01 3.83489355e-02
      3.13991234e-02 3.93201746e-02 9.30142775e-02 2.85994262e-01
      2.85994262e-01 8.37781727e-02 4.47786711e-02 4.99275438e-02
      4.99922745e-02 5.73679134e-02 5.35097606e-02 1.68026969e-01
      3.65687430e-01 1.21319972e-01 4.39873226e-02 4.22764830e-02
      3.97124588e-02 5.85283265e-02 3.92483175e-02 8.18789378e-02
      2.64465719e-01 3.65687430e-01 2.15353176e-01 5.28615415e-02
      2.26556715e-02 4.85326834e-02 5.08067273e-02 5.10631390e-02
      4.08034436e-02 1.49416819e-01 3.65687430e-01 2.10571304e-01
      4.70860377e-02 4.10931930e-02 3.31242420e-02 5.59925959e-02
      1.36281140e-02 7.01736808e-02 3.21549267e-01 3.65687430e-01
      2.56498933e-01 8.90514255e-02 3.49633470e-02 7.59917051e-02
      9.11970660e-02 5.35721220e-02 9.95773599e-02 2.73534238e-01
      3.57434034e-01 2.50613302e-01 8.63189474e-02 4.51207161e-02
      7.74780512e-02 3.07586528e-02 1.10800173e-02 2.35654786e-02
      8.09752196e-02 3.57434034e-01 9.11994129e-02 3.59754041e-02
      1.88147575e-02 3.43926623e-02 8.93134177e-02 3.07680890e-02
      1.12273656e-01 3.37878615e-01 3.57434034e-01 2.94101626e-01
      1.24891624e-01 5.46661690e-02 1.27640545e-01 2.93391254e-02
      2.01551896e-02 3.71252224e-02 1.21207684e-01 3.57434034e-01
      1.24013111e-01 2.56734956e-02 2.11919583e-02 3.08785550e-02
      4.59882803e-02 1.94677506e-02 4.86090407e-02 2.05724910e-01
      3.58101189e-01 2.32641503e-01 6.64113984e-02 2.66986564e-02
      5.73761277e-02 2.34527718e-02 1.62364114e-02 2.72173211e-02
      1.18402243e-01 3.58101189e-01 2.13804036e-01 4.64081764e-02
      3.01312413e-02 2.74456199e-02 2.90301293e-02 3.30610722e-02
      5.47609404e-02 3.58101189e-01 3.58101189e-01 2.55525559e-01
      4.84985113e-02 4.81827445e-02 2.25047786e-02 1.82305668e-02
      2.00464595e-02 3.61507609e-02 2.67219573e-01 3.58101189e-01
      1.62148952e-01 5.04144244e-02 4.22865488e-02 3.07410434e-02
      9.08960029e-02 6.67171329e-02 8.95929635e-02 1.64915711e-01
      2.76128620e-01 2.36774430e-01 7.87873417e-02 6.54424056e-02
      8.00880492e-02 7.67316073e-02 3.42061929e-02 6.28382489e-02
      2.64182299e-01 2.76128620e-01 2.37086847e-01 1.09587759e-01
      6.40746802e-02 1.14185132e-01 1.65705070e-01 1.23541303e-01
      1.92809179e-01 2.15929002e-01 2.76128620e-01 2.73720235e-01
      1.48320988e-01 1.41868219e-01 1.25027493e-01 9.69899595e-02
      6.71844706e-02 9.59918201e-02 1.71792492e-01 2.76128620e-01
      2.47809440e-01 1.08087428e-01 9.33065414e-02 1.07417524e-01
      1.28327116e-01 6.75468668e-02 1.16560556e-01 2.86586910e-01
      2.86586910e-01 2.86586910e-01 1.68900102e-01 1.06849335e-01
      1.99005738e-01 7.46564344e-02 6.41290247e-02 6.33372515e-02
      1.30188897e-01 2.86586910e-01 1.42746866e-01 4.88697439e-02
      5.38968183e-02 7.00552166e-02 1.47239998e-01 8.25816765e-02
      1.16754025e-01 2.18171448e-01 2.86586910e-01 2.86586910e-01
      1.51626080e-01 1.28023118e-01 1.73696220e-01 1.44486398e-01
      7.79183656e-02 6.47973493e-02 1.01721682e-01 2.35627666e-01
      1.73925489e-01 1.07100368e-01 9.98143405e-02 1.44835994e-01
      1.00270502e-01 1.44064188e-01 1.26675606e-01 2.63543755e-01
      2.63543755e-01 2.46469200e-01 9.40130949e-02 1.12556398e-01
      7.16770589e-02 3.64921503e-02 5.78362718e-02 7.42034689e-02
      2.59260625e-01 2.63543755e-01 1.36158288e-01 4.92834114e-02
      4.27494310e-02 2.99392026e-02 2.29550123e-01 2.30657384e-01
      1.28836840e-01 2.02066898e-01 2.63543755e-01 2.63543755e-01
      1.36744514e-01 1.43067777e-01 1.86738744e-01 7.57391006e-02
      1.05733670e-01 8.24251771e-02 1.50176868e-01 2.63543755e-01
      2.29136258e-01 5.85300177e-02 5.68411797e-02 5.00821471e-02</_>
    <_>
      1.89869300e-01 8.78885984e-02 1.45375594e-01 1.94823608e-01
      1.89911023e-01 1.37987748e-01 2.23506346e-01 1.98457554e-01
      1.90921992e-01 2.33105183e-01 1.43521056e-01 1.37929484e-01
      1.87654927e-01 2.09638342e-01 1.18804827e-01 2.03048840e-01
      1.81772962e-01 1.85991138e-01 1.29540324e-01 7.56750777e-02
      1.31007329e-01 2.36882508e-01 2.39790305e-01 1.30355179e-01
      1.18511140e-01 1.02383666e-01 1.32278681e-01 1.19499147e-01
      1.01026565e-01 1.20794222e-01 2.38843486e-01 2.39790305e-01
      1.67309657e-01 9.47126895e-02 6.20674081e-02 1.04880497e-01
      2.44887710e-01 2.44887710e-01 2.44887710e-01 2.44887710e-01
      2.27794677e-01 1.29384190e-01 2.21055910e-01 2.06084192e-01
      2.44887710e-01 1.16009153e-01 1.48544922e-01 1.37659311e-01
      1.16702616e-01 7.99305215e-02 4.21078056e-02 4.65475991e-02
      5.68132177e-02 1.17288567e-01 1.83812007e-01 1.73524886e-01
      2.12097079e-01 2.44887710e-01 2.44887710e-01 2.19327167e-01
      1.55600801e-01 8.77126679e-02 1.75448194e-01 1.05793141e-01
      8.01389441e-02 5.86939156e-02 7.83486366e-02 2.30633751e-01
      8.89779776e-02 4.27564718e-02 3.49763706e-02 1.06566951e-01
      2.17082664e-01 1.76708549e-01 1.19738631e-01 6.60306588e-02
      2.94339597e-01 2.94339597e-01 8.41672048e-02 6.10270835e-02
      1.45423055e-01 5.77038713e-02 5.03101200e-02 4.64927629e-02
      6.49766102e-02 2.94339597e-01 2.94339597e-01 1.00980617e-01
      4.36229706e-02 5.95866106e-02 2.02272519e-01 1.08342923e-01
      8.96346569e-02 1.43107042e-01 2.94339597e-01 2.94339597e-01
      6.51614890e-02 5.50230630e-02 1.91862240e-01 3.45047638e-02
      3.31870690e-02 3.59755754e-02 1.04465872e-01 2.94339597e-01
      2.94339597e-01 6.69607818e-02 3.40250470e-02 4.10027988e-02
      6.31102771e-02 4.08578664e-02 4.67983820e-02 1.81478754e-01
      3.83717716e-01 1.27504349e-01 4.68845330e-02 3.65696475e-02
      4.68470864e-02 6.19591363e-02 5.61150350e-02 6.95895627e-02
      2.69755125e-01 3.83717716e-01 1.88757539e-01 4.96680140e-02
      2.86235549e-02 6.55245557e-02 5.15964888e-02 5.44261821e-02
      3.84431779e-02 1.56802535e-01 3.83717716e-01 1.91293985e-01
      5.17535470e-02 4.13710400e-02 4.20012288e-02 6.21779934e-02
      4.27555852e-02 4.83369902e-02 2.50875771e-01 3.83717716e-01
      2.37282827e-01 5.79383112e-02 7.85182863e-02 7.35278726e-02
      1.02312803e-01 7.69057572e-02 9.66699868e-02 2.60954052e-01
      3.82185400e-01 2.11090416e-01 8.49684477e-02 5.60052730e-02
      1.02800496e-01 3.40596922e-02 1.39182732e-02 2.24863272e-02
      7.67192990e-02 3.74714822e-01 9.60701928e-02 3.61106917e-02
      2.09619273e-02 3.49524282e-02 1.21893033e-01 6.80094585e-02
      8.18616301e-02 2.65186995e-01 3.82185400e-01 2.70103514e-01
      7.81911016e-02 1.13890380e-01 1.20717838e-01 3.74780968e-02
      2.05061752e-02 3.86118032e-02 1.06328778e-01 3.82185400e-01
      1.30080014e-01 4.22386192e-02 2.73959488e-02 3.35652865e-02
      5.42955548e-02 1.89953055e-02 3.73682529e-02 2.02007592e-01
      3.52012247e-01 2.25757584e-01 4.81790677e-02 2.63940990e-02
      6.17307313e-02 2.04208698e-02 2.51441393e-02 2.66655739e-02
      1.41236484e-01 3.52012247e-01 2.27529094e-01 5.95074669e-02
      2.63100099e-02 2.60765329e-02 4.48495299e-02 2.52738986e-02
      5.30044027e-02 3.52012247e-01 3.52012247e-01 2.58714199e-01
      9.73189548e-02 5.32152504e-02 5.24471439e-02 3.34315337e-02
      2.69161835e-02 3.48020718e-02 2.67154008e-01 3.52012247e-01
      1.61651120e-01 7.00271800e-02 3.61011140e-02 3.18243057e-02
      7.30742738e-02 8.68376791e-02 9.54384208e-02 1.50173336e-01
      2.77033657e-01 2.36256972e-01 8.58722255e-02 6.97350800e-02
      1.06189892e-01 8.13618004e-02 6.01674207e-02 8.00355747e-02
      1.98007837e-01 2.77033657e-01 2.47183263e-01 1.15817040e-01
      1.21823020e-01 1.00515455e-01 1.58627406e-01 1.29726425e-01
      1.94164962e-01 2.23205730e-01 2.77033657e-01 2.77033657e-01
      1.37671500e-01 1.22792780e-01 1.52652353e-01 1.01173460e-01
      8.70409012e-02 1.10800751e-01 1.76257864e-01 2.77033657e-01
      2.25486621e-01 1.18925430e-01 1.10906482e-01 9.49805751e-02
      1.44675642e-01 1.04544610e-01 1.12202138e-01 2.49506727e-01
      2.75714815e-01 2.75714815e-01 1.41067594e-01 1.66796297e-01
      1.66827664e-01 1.13196410e-01 5.24611920e-02 5.40679432e-02
      1.42124742e-01 2.75714815e-01 1.32328272e-01 5.80642298e-02
      5.04449680e-02 1.18106805e-01 1.52339265e-01 1.08224176e-01
      1.21312410e-01 1.96589261e-01 2.75714815e-01 2.60034591e-01
      1.52134389e-01 1.55831948e-01 1.62883267e-01 1.64392695e-01
      6.60343990e-02 5.13911508e-02 1.11284204e-01 2.75714815e-01
      1.50317341e-01 1.04870290e-01 9.79760289e-02 1.98410258e-01
      1.57309547e-01 9.43982899e-02 1.06331512e-01 2.61919916e-01
      2.61919916e-01 2.28648588e-01 1.29182681e-01 7.61198699e-02
      1.72331303e-01 4.18491177e-02 4.46005836e-02 5.24263717e-02
      2.34956831e-01 2.61919916e-01 1.35108247e-01 6.32466227e-02
      2.84990203e-02 3.85732688e-02 2.25902736e-01 1.49144828e-01
      9.80302691e-02 2.40153506e-01 2.61919916e-01 2.61919916e-01
      1.61696285e-01 1.04382858e-01 2.58338124e-01 6.30924031e-02
      6.48133084e-02 5.50155006e-02 1.56478122e-01 2.61919916e-01
      2.40596026e-01 9.12429616e-02 3.69664617e-02 4.98596691e-02</_>
    <_>
      1.28468275e-01 2.20763102e-01 2.09475458e-01 2.49259338e-01
      2.49259338e-01 2.44947091e-01 1.74114242e-01 1.09689720e-01
      1.16275370e-01 9.29573476e-02 1.97820976e-01 1.61461830e-01
      2.49259338e-01 2.49259338e-01 2.34262556e-01 1.29525214e-01
      1.06088251e-01 1.22365773e-01 8.82881358e-02 1.45485595e-01
      2.29369417e-01 1.97331563e-01 2.49259338e-01 1.26819268e-01
      6.67125210e-02 4.94723469e-02 6.57620504e-02 4.23569791e-02
      7.77550116e-02 9.22936425e-02 1.85332745e-01 2.49259338e-01
      1.52560189e-01 5.71884997e-02 2.91158091e-02 4.57901023e-02
      1.65734544e-01 1.61735803e-01 1.10862739e-01 2.34837204e-01
      2.34837204e-01 2.34837204e-01 2.08051801e-01 2.00141162e-01
      2.20079139e-01 1.32660866e-01 7.74242356e-02 9.01929215e-02
      2.34837204e-01 2.34837204e-01 2.34837204e-01 1.81865439e-01
      1.64505869e-01 1.84859917e-01 4.86931242e-02 4.67164665e-02
      9.45905671e-02 1.52003035e-01 2.34837204e-01 2.34837204e-01
      1.18044339e-01 7.23178387e-02 6.88850880e-02 4.45279032e-02
      3.16504985e-02 6.69654459e-02 1.12922877e-01 2.34837204e-01
      2.34837204e-01 1.67680517e-01 9.11815986e-02 7.25871623e-02
      4.34799232e-02 3.87472622e-02 5.69044985e-02 1.20743796e-01
      2.01354384e-01 2.02058494e-01 1.39423013e-01 9.60325748e-02
      9.13178846e-02 4.10018526e-02 2.91304123e-02 2.98376139e-02
      6.83010742e-02 3.02516162e-01 2.87852317e-01 1.55071482e-01
      1.13537170e-01 1.04633234e-01 5.90311438e-02 5.15363477e-02
      9.02865604e-02 1.90895468e-01 3.02516162e-01 3.02516162e-01
      1.66242376e-01 7.94734955e-02 1.21124022e-01 8.96735191e-02
      6.91302940e-02 1.13552153e-01 1.84839532e-01 3.02516162e-01
      3.02516162e-01 2.41088152e-01 1.00018218e-01 1.83364481e-01
      3.56669985e-02 2.70469300e-02 9.01199132e-02 1.65946454e-01
      4.03124154e-01 1.23228222e-01 6.07981123e-02 6.53135404e-02
      5.09969108e-02 1.19963856e-02 1.58022214e-02 6.11854270e-02
      2.46790498e-01 4.03124154e-01 1.56231955e-01 2.67028306e-02
      1.88497286e-02 1.52534861e-02 3.63171324e-02 4.04012240e-02
      5.47944419e-02 1.80157289e-01 4.03124154e-01 1.67218119e-01
      6.88881129e-02 6.40638247e-02 5.23810312e-02 7.69878365e-03
      1.25117749e-02 2.41635013e-02 2.78077573e-01 4.03124154e-01
      1.86577111e-01 2.13536061e-02 1.70316901e-02 1.10902581e-02
      4.55340184e-02 4.46630418e-02 1.29567638e-01 2.16767207e-01
      3.16548675e-01 2.68680036e-01 8.52877498e-02 2.87160296e-02
      2.68913545e-02 5.57898432e-02 4.57708947e-02 1.08850911e-01
      1.24314524e-01 3.16548675e-01 3.14678460e-01 1.68573886e-01
      5.47674894e-02 3.72331701e-02 2.90441737e-02 2.72119623e-02
      5.18484749e-02 2.07898095e-01 3.16548675e-01 2.87485182e-01
      5.02010621e-02 1.29030235e-02 2.19320860e-02 5.62849864e-02
      4.55967039e-02 7.09811300e-02 1.50288686e-01 3.16548675e-01
      3.16548675e-01 1.15756646e-01 4.30093668e-02 3.46538723e-02
      3.64535935e-02 2.19227821e-02 5.69919720e-02 1.15744598e-01
      3.34728569e-01 2.59702563e-01 8.97966400e-02 2.86533590e-02
      5.70078567e-02 7.00261891e-02 3.81579995e-02 9.07238647e-02
      1.73866078e-01 3.34728569e-01 2.79519647e-01 1.32497817e-01
      3.70024331e-02 1.03461251e-01 6.83045313e-02 5.10955639e-02
      5.32435067e-02 1.36323154e-01 3.34728569e-01 2.62649357e-01
      7.48731866e-02 3.35110873e-02 4.00737263e-02 1.36099055e-01
      9.22691301e-02 8.60606432e-02 2.52872676e-01 3.34728569e-01
      2.75866598e-01 9.31607857e-02 3.79720852e-02 8.51035863e-02
      5.47912791e-02 4.26305756e-02 6.37416691e-02 1.13521032e-01
      2.16855660e-01 1.03918791e-01 1.08286090e-01 1.20996393e-01
      8.54328498e-02 2.86485031e-02 2.33800914e-02 3.16772982e-02
      1.13154009e-01 2.59660095e-01 1.75954044e-01 2.97441892e-02
      3.49259153e-02 3.21217887e-02 1.79011658e-01 1.60403520e-01
      2.33475700e-01 2.55023003e-01 2.59660095e-01 1.81125373e-01
      2.14583635e-01 2.59660095e-01 2.26181090e-01 1.77190050e-01
      1.31538510e-01 1.75345361e-01 1.79898664e-01 2.59660095e-01
      2.59660095e-01 1.33426085e-01 1.74957812e-01 1.73793197e-01
      4.65262085e-02 8.93055722e-02 6.69620410e-02 9.84808430e-02
      2.65489250e-01 1.91059709e-01 2.76376028e-02 1.20076900e-02
      2.44018286e-02 7.31068552e-02 1.38414666e-01 8.59367624e-02
      1.70009777e-01 2.65489250e-01 1.86428547e-01 6.92655742e-02
      5.19285873e-02 3.72424535e-02 1.47572964e-01 1.88165605e-01
      2.02271402e-01 1.69831872e-01 2.65489250e-01 2.65489250e-01
      1.27558097e-01 9.96928513e-02 1.52364329e-01 1.43774077e-01
      2.47130960e-01 1.72652423e-01 2.65489250e-01 2.65489250e-01
      2.53252923e-01 1.39643595e-01 1.25906333e-01 1.42382130e-01
      8.43564048e-02 9.12409723e-02 7.67180920e-02 2.79770851e-01
      3.01046252e-01 1.88714117e-01 6.94991872e-02 6.32292926e-02
      4.01622467e-02 1.09605253e-01 9.54776853e-02 1.05817497e-01
      3.01046252e-01 3.01046252e-01 2.04830378e-01 6.93303719e-02
      4.66236100e-02 6.02381006e-02 1.02081619e-01 1.72281757e-01
      1.33078933e-01 3.01046252e-01 3.01046252e-01 1.09985195e-01
      6.56441078e-02 7.09566474e-02 7.58042708e-02 7.28676766e-02
      7.70964101e-02 1.57500833e-01 3.01046252e-01 3.01046252e-01
      8.66011232e-02 2.34067272e-02 2.74841357e-02 4.67378795e-02</_>
    <_>
      1.18385375e-01 1.65275589e-01 2.15248227e-01 2.57563204e-01
      2.57563204e-01 2.57563204e-01 2.32005835e-01 6.55891001e-02
      1.94203287e-01 5.79910576e-02 1.64520368e-01 1.94405138e-01
      1.85111865e-01 2.57563204e-01 1.84592336e-01 4.63452190e-02
      3.98055390e-02 9.64973792e-02 1.11724019e-01 1.79255441e-01
      1.99652210e-01 1.98070139e-01 2.57563204e-01 1.86823919e-01
      1.50236756e-01 5.40045053e-02 1.71592087e-01 3.31070796e-02
      8.96682739e-02 1.01454936e-01 1.23717695e-01 2.57563204e-01
      1.19298123e-01 2.72514671e-02 2.11912412e-02 5.07637523e-02
      1.14102170e-01 1.44484892e-01 1.78550258e-01 2.37773016e-01
      2.37773016e-01 2.37773016e-01 1.10162280e-01 1.52634636e-01
      1.67573601e-01 1.12008378e-01 1.23432040e-01 1.41440213e-01
      2.37773016e-01 2.37773016e-01 2.37773016e-01 2.37773016e-01
      2.03340620e-01 2.01028913e-01 4.04307246e-02 4.58772555e-02
      6.07441925e-02 1.61263540e-01 2.37773016e-01 2.33586982e-01
      9.37926769e-02 5.38832583e-02 5.50445728e-02 5.36937602e-02
      6.18053079e-02 4.95170094e-02 1.22538932e-01 2.37773016e-01
      2.37773016e-01 1.72210544e-01 1.06652096e-01 7.41445795e-02
      4.41995710e-02 6.48377761e-02 6.28252178e-02 1.51622951e-01
      2.11034372e-01 1.79748103e-01 1.77544653e-01 9.35232267e-02
      9.33521017e-02 4.74476069e-02 3.08575947e-02 1.12148896e-02
      5.63001260e-02 2.90964991e-01 2.69731551e-01 1.65755659e-01
      1.21772438e-01 7.60550648e-02 6.46607056e-02 7.41791427e-02
      4.37588319e-02 1.61424711e-01 2.90964991e-01 2.60374814e-01
      1.81721479e-01 1.08115144e-01 7.04624131e-02 1.51521251e-01
      6.96237609e-02 4.23127674e-02 2.12627664e-01 2.90964991e-01
      2.90964991e-01 2.90964991e-01 2.17399210e-01 1.01625510e-01
      7.82855079e-02 1.03421144e-01 1.00943670e-01 1.68497428e-01
      3.64317626e-01 2.33091235e-01 9.37942863e-02 7.62540847e-02
      1.07505798e-01 1.78230833e-02 2.85492521e-02 5.33986427e-02
      2.12886423e-01 3.64317626e-01 1.53081223e-01 3.37130725e-02
      3.02656982e-02 2.86791623e-02 6.74768910e-02 1.16989858e-01
      9.16785449e-02 2.50611663e-01 3.64317626e-01 2.41442159e-01
      1.03311971e-01 8.90556723e-02 8.78033862e-02 1.99382715e-02
      3.11610661e-02 4.41152416e-02 2.42851272e-01 3.64317626e-01
      1.22605033e-01 3.30088921e-02 2.74844505e-02 2.65152417e-02
      3.57175507e-02 2.39304099e-02 5.28225191e-02 2.39943087e-01
      3.46535385e-01 2.41386890e-01 5.68147562e-02 2.67509110e-02
      1.97970886e-02 8.11472163e-02 3.58126350e-02 3.42447348e-02
      1.56732395e-01 3.46535385e-01 3.05882514e-01 1.37242422e-01
      6.73288405e-02 3.54061574e-02 2.98435763e-02 1.69184096e-02
      2.43092813e-02 2.30943710e-01 3.46535385e-01 1.84297398e-01
      2.62109768e-02 1.84901319e-02 1.87640693e-02 6.41429201e-02
      3.42590883e-02 3.39324735e-02 1.71196908e-01 3.46535385e-01
      3.15708369e-01 9.99994725e-02 5.25929518e-02 3.08204498e-02
      4.84055765e-02 2.41003670e-02 2.48588640e-02 1.08101368e-01
      3.07990164e-01 2.39292741e-01 1.11491688e-01 5.06420135e-02
      3.13495286e-02 1.20390683e-01 4.18073684e-02 6.79653436e-02
      2.17794344e-01 3.07990164e-01 3.07990164e-01 2.11924016e-01
      1.13013953e-01 8.80292729e-02 5.52588962e-02 3.22499424e-02
      4.31773104e-02 1.21208943e-01 3.07990164e-01 2.37519622e-01
      9.40307602e-02 3.89033630e-02 2.87397560e-02 1.57149971e-01
      8.06536302e-02 1.00385725e-01 2.35491753e-01 3.07990164e-01
      2.68833607e-01 1.62390515e-01 8.59596804e-02 9.70837250e-02
      5.72787262e-02 7.31683150e-02 7.26504475e-02 1.57687530e-01
      2.63635606e-01 1.34373009e-01 1.29556045e-01 1.23902611e-01
      5.97511306e-02 2.26345379e-02 2.41337940e-02 2.71623284e-02
      9.82803628e-02 2.63635606e-01 8.43118504e-02 5.00119440e-02
      4.20971215e-02 2.67216098e-02 2.17758760e-01 1.40419528e-01
      1.62690595e-01 2.12684974e-01 2.63635606e-01 2.07025006e-01
      2.63635606e-01 2.63635606e-01 2.00822115e-01 1.78509668e-01
      1.12794012e-01 1.04028605e-01 2.25341231e-01 2.63635606e-01
      1.68260634e-01 1.79461271e-01 2.09893525e-01 1.77268073e-01
      3.39211449e-02 3.54941897e-02 3.04300617e-02 1.02469817e-01
      3.12277615e-01 1.07529491e-01 1.50545137e-02 9.12096538e-03
      1.22209108e-02 8.38688836e-02 7.89478868e-02 1.00459874e-01
      1.23776019e-01 3.12277615e-01 1.65052876e-01 5.22478782e-02
      3.76930721e-02 4.94269170e-02 1.54068068e-01 1.42526016e-01
      9.34269726e-02 2.31908172e-01 3.12277615e-01 1.91048339e-01
      9.28843468e-02 1.25575870e-01 1.55399203e-01 2.20824972e-01
      1.89609125e-01 1.94040954e-01 2.93705553e-01 3.12277615e-01
      1.94403008e-01 1.02387562e-01 1.40454292e-01 2.00493112e-01
      9.01385248e-02 7.24345371e-02 9.91071537e-02 2.01179877e-01
      2.96485007e-01 1.82002515e-01 7.81170279e-02 4.80669625e-02
      6.91672117e-02 1.52004883e-01 9.62866470e-02 1.19951077e-01
      2.96485007e-01 2.96485007e-01 1.97197333e-01 1.11594506e-01
      4.69651222e-02 7.34431595e-02 1.51302665e-01 1.37161389e-01
      1.69972733e-01 2.96485007e-01 2.96485007e-01 1.17332347e-01
      7.58981183e-02 8.62888470e-02 1.25311717e-01 9.55355242e-02
      1.09617077e-01 1.41456425e-01 2.96485007e-01 2.96485007e-01
      9.59450901e-02 2.96046119e-02 2.29097046e-02 3.14321481e-02</_>
    <_>
      1.62736923e-01 2.38937169e-01 2.38937169e-01 2.27200806e-01
      2.38937169e-01 2.38937169e-01 1.24998204e-01 9.41420868e-02
      2.07899168e-01 7.11443573e-02 1.71953529e-01 1.94439650e-01
      1.81967154e-01 2.38937169e-01 1.75517276e-01 3.77464592e-02
      4.45645787e-02 1.04296982e-01 1.25126734e-01 1.99138507e-01
      2.38937169e-01 2.01567173e-01 2.38937169e-01 2.38937169e-01
      1.10399559e-01 6.88659400e-02 1.39825389e-01 4.01883461e-02
      9.04190093e-02 9.56563354e-02 1.23570614e-01 2.38937169e-01
      1.27024591e-01 2.88972892e-02 2.55897455e-02 5.54752164e-02
      1.19651310e-01 1.43941045e-01 1.70954734e-01 2.37748966e-01
      2.37748966e-01 2.37748966e-01 1.17035739e-01 1.49244979e-01
      1.71687037e-01 1.07245669e-01 1.27042055e-01 1.44688010e-01
      2.37748966e-01 2.37748966e-01 2.37748966e-01 2.37748966e-01
      1.96385860e-01 2.02318728e-01 4.33731787e-02 4.79599386e-02
      5.39078526e-02 1.63761124e-01 2.37748966e-01 2.34587178e-01
      9.52189937e-02 5.32776788e-02 5.65003641e-02 5.17808422e-02
      6.31801039e-02 5.25361896e-02 1.18985102e-01 2.37748966e-01
      2.37748966e-01 1.73687980e-01 1.06009744e-01 7.45876580e-02
      4.26753610e-02 6.58473894e-02 6.62591234e-02 1.49336562e-01
      2.12458074e-01 1.75715253e-01 1.81628898e-01 9.07420740e-02
      9.43840072e-02 4.98269834e-02 2.94148494e-02 1.08850244e-02
      5.58671393e-02 2.91611791e-01 2.66888499e-01 1.68333367e-01
      1.18606046e-01 7.81431794e-02 6.23291805e-02 7.42722973e-02
      4.67651635e-02 1.59624457e-01 2.91611791e-01 2.55356431e-01
      1.84297815e-01 1.07233644e-01 7.37332255e-02 1.51537687e-01
      6.87939823e-02 3.84872407e-02 2.18039021e-01 2.91611791e-01
      2.91611791e-01 2.91611791e-01 2.10146174e-01 1.11896634e-01
      7.67178833e-02 9.05982852e-02 1.26079619e-01 2.57327825e-01
      3.55096310e-01 2.88546830e-01 1.12264313e-01 8.73673260e-02
      8.01903009e-02 1.45697799e-02 2.26742569e-02 4.59697582e-02
      1.90140143e-01 3.55096310e-01 1.38962507e-01 3.69046368e-02
      3.14395092e-02 2.30201092e-02 7.47419670e-02 1.04078539e-01
      7.94518888e-02 2.27934927e-01 3.55096310e-01 2.42621377e-01
      1.02460369e-01 9.79091749e-02 7.80812502e-02 1.97715685e-02
      2.55878363e-02 3.66782099e-02 2.19287977e-01 3.55096310e-01
      1.12275608e-01 3.05474810e-02 2.52522323e-02 1.93625148e-02
      3.65650095e-02 2.50458177e-02 5.02514914e-02 2.38311499e-01
      3.47486705e-01 2.42785096e-01 5.87662421e-02 2.63759121e-02
      1.84549168e-02 8.15154612e-02 3.59624289e-02 3.43383253e-02
      1.54763684e-01 3.47486705e-01 3.04802001e-01 1.38545975e-01
      6.62538260e-02 3.70648094e-02 3.13645452e-02 1.64669249e-02
      2.17984021e-02 2.32375801e-01 3.47486705e-01 1.81038573e-01
      2.89041530e-02 1.79478005e-02 1.81753915e-02 6.45348877e-02
      3.49803120e-02 3.36707346e-02 1.71083063e-01 3.47486705e-01
      3.12553108e-01 1.04020715e-01 5.09353951e-02 3.17055359e-02
      4.71135229e-02 2.39362549e-02 2.30989717e-02 1.09080017e-01
      3.07585150e-01 2.34259427e-01 1.10616438e-01 5.18565327e-02
      3.30712721e-02 1.16508037e-01 4.25223336e-02 6.11745305e-02
      2.22565383e-01 3.07585150e-01 3.07585150e-01 2.12620601e-01
      1.14150278e-01 9.27592963e-02 5.54716997e-02 3.24107558e-02
      4.24107984e-02 1.22312926e-01 3.07585150e-01 2.36838192e-01
      9.10707563e-02 4.05027680e-02 2.83276122e-02 1.61681443e-01
      8.04901719e-02 9.73785520e-02 2.35913634e-01 3.07585150e-01
      2.77900249e-01 1.50090039e-01 9.37653184e-02 9.07731131e-02
      5.77714890e-02 7.72587210e-02 7.21234530e-02 1.55198812e-01
      2.63646483e-01 1.37790605e-01 1.28271371e-01 1.23269014e-01
      6.09701537e-02 2.37955730e-02 2.46047582e-02 2.56334748e-02
      9.80801135e-02 2.63646483e-01 8.41086954e-02 4.99987639e-02
      4.08299603e-02 2.66027357e-02 2.14100957e-01 1.49197921e-01
      1.61344349e-01 2.16085166e-01 2.63646483e-01 2.08729669e-01
      2.63646483e-01 2.63646483e-01 2.01573193e-01 1.76636875e-01
      1.15937226e-01 1.09685600e-01 2.18405575e-01 2.63646483e-01
      1.65172741e-01 1.78813607e-01 2.10094571e-01 1.76550239e-01
      3.49493772e-02 3.51334475e-02 2.98038516e-02 1.03994578e-01
      3.14004868e-01 1.04952529e-01 1.69536211e-02 8.43243673e-03
      1.26899965e-02 8.46218020e-02 7.94766396e-02 1.01039685e-01
      1.24249190e-01 3.14004868e-01 1.64203912e-01 5.39358482e-02
      3.70619446e-02 5.06291501e-02 1.53359279e-01 1.39299378e-01
      1.00658260e-01 2.22297460e-01 3.14004868e-01 1.86141133e-01
      9.86019373e-02 1.22258715e-01 1.61265567e-01 2.22096682e-01
      1.86025858e-01 1.97407469e-01 2.87725359e-01 3.14004868e-01
      1.96867570e-01 1.05313294e-01 1.34978876e-01 2.05640629e-01
      9.11493078e-02 7.24737719e-02 1.01078749e-01 1.99103713e-01
      2.96104491e-01 1.82904050e-01 7.71537498e-02 4.81359661e-02
      6.95453659e-02 1.59688115e-01 9.38151181e-02 1.21437192e-01
      2.96104491e-01 2.96104491e-01 2.04406902e-01 1.06896013e-01
      4.92040403e-02 6.80191219e-02 1.53928906e-01 1.33932486e-01
      1.71920449e-01 2.92718679e-01 2.96104491e-01 1.20293245e-01
      7.60324374e-02 8.31612870e-02 1.25160053e-01 9.98590738e-02
      1.03472561e-01 1.43329129e-01 2.96104491e-01 2.96104491e-01
      9.11988020e-02 3.33552174e-02 2.05048770e-02 3.01955435e-02</_>
    <_>
      2.02649206e-01 2.36881644e-01 2.36881644e-01 2.36881644e-01
      2.36881644e-01 2.16321290e-01 1.08040676e-01 5.62405176e-02
      1.93509862e-01 7.50830993e-02 1.72989368e-01 2.32914925e-01
      2.12017715e-01 2.36881644e-01 1.91397160e-01 4.89533283e-02
      5.88179193e-02 8.67457613e-02 1.42796963e-01 2.36881644e-01
      2.36881644e-01 1.55750036e-01 2.36881644e-01 1.43333718e-01
      8.21027905e-02 6.17669560e-02 1.40519992e-01 4.85489257e-02
      1.03716247e-01 1.13858208e-01 1.53424770e-01 2.36881644e-01
      1.36145219e-01 3.14065814e-02 2.87916157e-02 4.72479388e-02
      1.10342197e-01 1.34763747e-01 1.78717256e-01 2.37112314e-01
      2.37112314e-01 2.37112314e-01 1.16388112e-01 1.64451376e-01
      1.58133745e-01 1.06622793e-01 1.31227762e-01 1.41875431e-01
      2.37112314e-01 2.37112314e-01 2.37112314e-01 2.31157944e-01
      1.96962535e-01 2.15578198e-01 4.32778671e-02 4.59641777e-02
      6.31545931e-02 1.69751659e-01 2.37112314e-01 2.37112314e-01
      9.37918797e-02 5.56990914e-02 4.67943512e-02 5.37339747e-02
      6.31997660e-02 5.84782287e-02 1.18770361e-01 2.37112314e-01
      2.37112314e-01 1.64029330e-01 1.08008012e-01 7.91001916e-02
      4.27561328e-02 6.39187917e-02 7.28412420e-02 1.48009956e-01
      2.09991872e-01 1.86381891e-01 1.72640741e-01 8.91702995e-02
      9.47242975e-02 4.70389761e-02 2.64151115e-02 1.65589247e-02
      5.58423065e-02 2.92097688e-01 2.62343317e-01 1.71495989e-01
      1.22769386e-01 7.73500502e-02 6.16379082e-02 6.76436573e-02
      5.72040640e-02 1.55582786e-01 2.92097688e-01 2.60418564e-01
      1.84492931e-01 9.90994722e-02 7.74276033e-02 1.48335472e-01
      5.84068745e-02 5.06110266e-02 2.21176058e-01 2.92097688e-01
      2.92097688e-01 2.92097688e-01 2.07174048e-01 1.13366701e-01
      6.10859878e-02 1.59155801e-01 1.67295456e-01 1.36218950e-01
      3.96929324e-01 1.79301441e-01 9.13137048e-02 1.24516942e-01
      6.24111816e-02 2.76555680e-02 2.89580990e-02 4.89154197e-02
      2.09301218e-01 3.96929324e-01 1.22057103e-01 2.89700273e-02
      3.27830724e-02 3.16393450e-02 5.65629750e-02 4.15755287e-02
      8.36207345e-02 2.11106807e-01 3.96929324e-01 1.69920594e-01
      9.13818479e-02 9.59398672e-02 4.99088950e-02 3.03830542e-02
      2.60000583e-02 3.49834599e-02 2.10733414e-01 3.96929324e-01
      9.44461450e-02 3.07372380e-02 3.39657925e-02 3.25485989e-02
      3.64152789e-02 2.33982578e-02 5.83113730e-02 2.33353719e-01
      3.52153629e-01 2.37977505e-01 5.51501438e-02 2.30791867e-02
      1.93854328e-02 8.05416703e-02 3.36849540e-02 4.02705148e-02
      1.53898582e-01 3.52153629e-01 3.13269883e-01 1.33042470e-01
      6.49301261e-02 3.92795615e-02 2.78280731e-02 1.42989289e-02
      2.23232992e-02 2.17812538e-01 3.52153629e-01 1.70627996e-01
      2.93683279e-02 1.72371808e-02 1.92182306e-02 6.38438687e-02
      3.39318961e-02 3.19450349e-02 1.73142269e-01 3.52153629e-01
      3.10560346e-01 9.83403176e-02 5.13159707e-02 3.24988849e-02
      4.58299667e-02 2.21165586e-02 2.54357979e-02 1.07683063e-01
      3.06399375e-01 2.36545026e-01 1.09335348e-01 4.77161258e-02
      3.59890051e-02 1.14575192e-01 3.97407822e-02 6.35060146e-02
      2.26464406e-01 3.06399375e-01 3.06399375e-01 2.08490014e-01
      1.13623381e-01 9.47114751e-02 5.52252270e-02 3.58930230e-02
      3.59043926e-02 1.15913615e-01 3.06399375e-01 2.40571424e-01
      8.45744461e-02 4.06951979e-02 2.83297393e-02 1.63394585e-01
      8.58990550e-02 8.96544904e-02 2.33807594e-01 3.06399375e-01
      2.90593117e-01 1.43839091e-01 9.82171446e-02 8.79697278e-02
      6.20906390e-02 4.81038503e-02 9.18170661e-02 1.44508764e-01
      2.65948504e-01 1.13212422e-01 1.24895066e-01 1.19446732e-01
      7.02214167e-02 2.58721337e-02 2.56850328e-02 2.59298459e-02
      8.49185288e-02 2.65948504e-01 8.60756263e-02 5.13111278e-02
      4.31080721e-02 3.17451991e-02 2.00023338e-01 1.61231041e-01
      1.83538333e-01 2.41158709e-01 2.65948504e-01 1.67352021e-01
      2.65948504e-01 2.65948504e-01 2.28205472e-01 1.64637387e-01
      1.13826491e-01 1.05695732e-01 2.11417660e-01 2.65948504e-01
      1.65590227e-01 1.68348595e-01 2.16032371e-01 1.77363589e-01
      3.29468697e-02 3.65137309e-02 2.84352619e-02 1.01023279e-01
      3.08476895e-01 1.09955214e-01 1.60012897e-02 9.23358370e-03
      1.57625508e-02 8.13865215e-02 8.30418989e-02 9.34200287e-02
      1.25970542e-01 3.08476895e-01 1.69512346e-01 5.24679385e-02
      3.58231552e-02 5.30375205e-02 1.54628083e-01 1.38590023e-01
      9.69347134e-02 2.27787390e-01 3.08476895e-01 1.96796909e-01
      8.78397897e-02 1.22451760e-01 1.59624025e-01 2.13376999e-01
      1.89405024e-01 1.95044681e-01 2.94148386e-01 3.08476895e-01
      2.19988897e-01 1.06726199e-01 1.32374451e-01 2.04635188e-01
      8.99836048e-02 8.11903477e-02 9.05037671e-02 1.91649094e-01
      2.90485084e-01 1.94741398e-01 7.53198341e-02 4.68071438e-02
      7.03185424e-02 1.59931034e-01 1.01539358e-01 1.11783966e-01
      2.90485084e-01 2.90485084e-01 2.30937243e-01 1.01025105e-01
      4.98677939e-02 6.33518323e-02 1.51620239e-01 1.37868106e-01
      1.76301643e-01 2.90308505e-01 2.90485084e-01 1.40957072e-01
      7.91062638e-02 8.09524059e-02 1.25270069e-01 9.83767435e-02
      1.06869638e-01 1.47624478e-01 2.90485084e-01 2.90485084e-01
      1.05998524e-01 2.97297202e-02 1.85427163e-02 3.09497360e-02</_>
    <_>
      1.34421870e-01 2.44770363e-01 2.44770363e-01 2.44770363e-01
      2.44770363e-01 2.06777215e-01 1.24570608e-01 1.18816167e-01
      1.45715624e-01 7.85933807e-02 1.84986979e-01 2.44770363e-01
      2.22141311e-01 2.44770363e-01 1.85110211e-01 4.66974340e-02
      5.28396331e-02 8.95948932e-02 1.21290535e-01 2.44770363e-01
      2.00631037e-01 1.69402286e-01 2.44770363e-01 1.68934181e-01
      8.16595703e-02 7.06127509e-02 1.06478721e-01 4.55031581e-02
      1.08650118e-01 1.17988169e-01 1.44813567e-01 2.44770363e-01
      1.47009581e-01 3.80583405e-02 2.75551565e-02 4.31021638e-02
      1.13017380e-01 1.35390729e-01 1.79407299e-01 2.37865612e-01
      2.37865612e-01 2.37865612e-01 1.08909190e-01 1.65956900e-01
      1.56486869e-01 1.07822202e-01 1.31359711e-01 1.40344590e-01
      2.37865612e-01 2.37865612e-01 2.37865612e-01 2.17255995e-01
      2.13727966e-01 2.05552369e-01 4.06315662e-02 4.87980917e-02
      6.14250675e-02 1.70939520e-01 2.37865612e-01 2.37865612e-01
      9.38271955e-02 5.84626719e-02 4.56765220e-02 5.19220307e-02
      6.48951679e-02 5.65670691e-02 1.17697589e-01 2.37865612e-01
      2.37865612e-01 1.64763153e-01 1.12616718e-01 7.62154832e-02
      4.28407378e-02 6.43627942e-02 7.06391335e-02 1.44189104e-01
      2.11359680e-01 1.92008644e-01 1.67659804e-01 9.42976028e-02
      9.03684422e-02 4.92555089e-02 2.55032983e-02 1.57948565e-02
      5.71675375e-02 2.91626066e-01 2.65815765e-01 1.70379356e-01
      1.23117514e-01 7.34065175e-02 6.17340282e-02 6.80327788e-02
      5.62820435e-02 1.55787140e-01 2.91626066e-01 2.58713514e-01
      1.84529409e-01 1.00762397e-01 7.51810521e-02 1.49825469e-01
      5.84785268e-02 5.16065285e-02 2.20292315e-01 2.91626066e-01
      2.91626066e-01 2.91626066e-01 2.10905492e-01 1.11158371e-01
      7.07022771e-02 1.06546454e-01 7.90118203e-02 1.55043706e-01
      3.57789606e-01 2.55103797e-01 9.92224962e-02 7.88481534e-02
      8.49101767e-02 1.75913684e-02 2.79651191e-02 4.56615947e-02
      2.04199851e-01 3.57789606e-01 1.62520126e-01 4.78346460e-02
      3.57111543e-02 1.84739567e-02 1.10520765e-01 1.13271944e-01
      8.90036225e-02 2.23532423e-01 3.57789606e-01 2.79878259e-01
      1.11185052e-01 1.08859986e-01 1.15727410e-01 2.46444270e-02
      2.59845275e-02 3.24130915e-02 2.26211041e-01 3.57789606e-01
      1.34732157e-01 4.39056009e-02 3.48040536e-02 2.30350010e-02
      3.38342115e-02 2.51056049e-02 4.84277494e-02 2.35958949e-01
      3.52251321e-01 2.47323215e-01 5.79571687e-02 2.63509173e-02
      1.91255901e-02 7.67894909e-02 3.54958177e-02 3.22128348e-02
      1.41860917e-01 3.52251321e-01 3.04832757e-01 1.39716208e-01
      6.68374300e-02 4.36938331e-02 2.60840394e-02 1.46009438e-02
      1.71375033e-02 2.20771670e-01 3.52251321e-01 1.83637097e-01
      3.11160237e-02 1.79765895e-02 1.65147558e-02 6.06409907e-02
      3.57178189e-02 2.59629562e-02 1.59141660e-01 3.52251321e-01
      3.10015619e-01 1.05916463e-01 5.23944274e-02 3.73156294e-02
      4.56185937e-02 2.22835355e-02 2.51150839e-02 1.07736818e-01
      3.05619329e-01 2.34422192e-01 1.12803020e-01 4.79041301e-02
      3.67790833e-02 1.16672359e-01 3.97712067e-02 6.40023574e-02
      2.28083611e-01 3.05619329e-01 3.05619329e-01 2.07117960e-01
      1.17652640e-01 9.36205462e-02 5.38581386e-02 3.58956195e-02
      3.61109003e-02 1.17351055e-01 3.05619329e-01 2.40289658e-01
      9.01575089e-02 3.97137031e-02 3.02830059e-02 1.62334085e-01
      8.57290551e-02 9.02738795e-02 2.34751090e-01 3.05619329e-01
      2.90877402e-01 1.40280947e-01 9.97944772e-02 9.02148560e-02
      7.03971609e-02 8.54924098e-02 7.50089586e-02 1.50731519e-01
      2.59113580e-01 1.32535473e-01 1.38574734e-01 1.20833077e-01
      8.80631357e-02 2.75327191e-02 2.54937150e-02 2.16185916e-02
      9.86321718e-02 2.59113580e-01 8.60890076e-02 5.20400256e-02
      4.08306830e-02 3.49775553e-02 1.92354620e-01 1.67814225e-01
      1.78809807e-01 2.32041597e-01 2.59113580e-01 1.87542051e-01
      2.59113580e-01 2.59113580e-01 2.32808664e-01 1.71778008e-01
      1.11974701e-01 1.03154317e-01 2.18002468e-01 2.59113580e-01
      1.58358067e-01 1.67173728e-01 2.18415454e-01 1.70090735e-01
      3.32111269e-02 3.57938260e-02 2.84996629e-02 1.05407298e-01
      3.08392376e-01 1.11443199e-01 1.61382128e-02 8.41220655e-03
      1.39836278e-02 8.22606012e-02 8.28859359e-02 9.38319266e-02
      1.26350418e-01 3.08392376e-01 1.68972820e-01 5.59760705e-02
      3.56652699e-02 5.30420914e-02 1.53345004e-01 1.34676114e-01
      9.57588553e-02 2.36069500e-01 3.08392376e-01 1.88833043e-01
      9.18383524e-02 1.28402889e-01 1.51347056e-01 2.16688678e-01
      1.88868001e-01 1.96993232e-01 2.96620816e-01 3.08392376e-01
      2.13275373e-01 1.10113129e-01 1.32839739e-01 2.00887576e-01
      8.91877934e-02 8.04095566e-02 9.12478566e-02 1.93892151e-01
      2.90446609e-01 1.94369376e-01 7.85697252e-02 4.69237901e-02
      7.17189834e-02 1.58213794e-01 9.96347964e-02 1.14834413e-01
      2.90446609e-01 2.90446609e-01 2.28008538e-01 9.97522101e-02
      5.13909273e-02 6.75106794e-02 1.54275745e-01 1.38570547e-01
      1.76628649e-01 2.90446609e-01 2.90446609e-01 1.39816776e-01
      7.99296349e-02 8.06781724e-02 1.24371514e-01 1.00920476e-01
      1.05471618e-01 1.45096824e-01 2.90446609e-01 2.90446609e-01
      1.04753591e-01 2.71605402e-02 1.94195658e-02 3.31071652e-02</_>
    <_>
      1.27407953e-01 1.68199018e-01 2.73739964e-01 2.39289925e-01
      2.75230855e-01 2.53798574e-01 1.62292764e-01 1.28574252e-01
      1.40298128e-01 1.05831563e-01 1.69068754e-01 2.32698768e-01
      1.76292852e-01 2.75230855e-01 1.80736065e-01 1.08641401e-01
      7.11944923e-02 1.15703367e-01 9.16887969e-02 1.32583827e-01
      1.99315608e-01 1.95672080e-01 2.75230855e-01 1.64278582e-01
      8.49610344e-02 1.02817446e-01 8.96837264e-02 4.30708677e-02
      4.96478081e-02 6.81979284e-02 1.48796082e-01 2.75230855e-01
      9.89033803e-02 4.38289307e-02 4.03024778e-02 3.69014367e-02
      1.67120829e-01 2.04036176e-01 2.33923957e-01 2.03248933e-01
      2.44240358e-01 2.44240358e-01 1.95796132e-01 1.37892023e-01
      1.87826902e-01 1.58024639e-01 1.62835509e-01 1.88361049e-01
      2.11551055e-01 2.44240358e-01 2.44240358e-01 2.44240358e-01
      1.85873985e-01 1.74835235e-01 5.15603721e-02 5.38973100e-02
      6.42266795e-02 9.98777449e-02 2.44240358e-01 1.44272089e-01
      6.36250675e-02 5.73730394e-02 5.49063906e-02 5.96167780e-02
      6.60797134e-02 8.90657008e-02 9.64674354e-02 2.44240358e-01
      1.69379830e-01 8.62071961e-02 8.77177119e-02 7.15553537e-02
      6.25394732e-02 5.41944057e-02 8.05592090e-02 1.25507578e-01
      2.94218749e-01 2.34538317e-01 1.29504964e-01 8.86586979e-02
      8.31401274e-02 3.57890502e-02 7.87890144e-03 1.66905615e-02
      5.96901961e-02 2.94611663e-01 2.61694133e-01 1.12493448e-01
      8.66870508e-02 9.45990458e-02 6.32610694e-02 5.20134531e-02
      7.02410191e-02 1.55568942e-01 2.94611663e-01 2.76967436e-01
      1.40093446e-01 8.39539915e-02 9.93906036e-02 1.23930611e-01
      6.68162927e-02 5.13375960e-02 1.75069809e-01 2.94611663e-01
      2.94611663e-01 2.76626199e-01 1.77756146e-01 1.85859427e-01
      7.68309236e-02 4.92681637e-02 6.68192655e-02 2.12772578e-01
      3.69126707e-01 2.35242054e-01 1.29050642e-01 1.53438017e-01
      1.27391577e-01 3.51063982e-02 3.89650986e-02 4.82601710e-02
      2.60260969e-01 3.69126707e-01 8.84043649e-02 4.40808758e-02
      5.34489676e-02 3.91020998e-02 3.68775129e-02 2.90931985e-02
      2.95912232e-02 1.54826701e-01 3.69126707e-01 1.90104708e-01
      8.40880498e-02 6.14567362e-02 5.82862981e-02 2.38762982e-02
      4.77782115e-02 4.33254540e-02 3.19075614e-01 3.69126707e-01
      9.18592885e-02 2.65426375e-02 2.35289726e-02 2.87875459e-02
      5.25341704e-02 8.67285877e-02 8.10418874e-02 1.87701315e-01
      3.35416377e-01 1.84257612e-01 3.22472379e-02 5.92520833e-02
      7.23186582e-02 4.40512337e-02 6.46715015e-02 7.11272135e-02
      1.10796899e-01 3.35416377e-01 2.39954442e-01 5.31607084e-02
      6.17714673e-02 8.60992894e-02 6.50672466e-02 8.59093741e-02
      7.30690435e-02 2.45058969e-01 3.35416377e-01 2.77889907e-01
      9.53145027e-02 5.38484938e-02 9.09047127e-02 7.00569898e-02
      7.31812790e-02 7.81933963e-02 1.61046013e-01 3.35416377e-01
      3.15538406e-01 1.21591277e-01 7.41563514e-02 1.38162106e-01
      3.06378510e-02 3.58839817e-02 3.92368324e-02 9.06518996e-02
      3.48356158e-01 1.65487766e-01 7.95671865e-02 4.14789282e-02
      3.88390347e-02 9.45122987e-02 8.64273161e-02 8.69046524e-02
      1.16630018e-01 3.48356158e-01 2.76593298e-01 1.85718209e-01
      1.09220743e-01 9.51968953e-02 3.37990299e-02 5.96217290e-02
      8.18236023e-02 1.44330204e-01 3.48356158e-01 1.75805256e-01
      6.82884678e-02 3.70353945e-02 4.37756181e-02 8.33646953e-02
      1.38529196e-01 2.10657239e-01 2.02065021e-01 3.48356158e-01
      2.81090438e-01 1.38567150e-01 7.74793401e-02 7.74135292e-02
      4.61449102e-02 3.40981334e-02 2.80094817e-02 1.15779318e-01
      2.71619886e-01 1.50596634e-01 1.18126169e-01 9.41533148e-02
      9.99071673e-02 4.89448979e-02 3.71142179e-02 2.83924080e-02
      2.13457242e-01 2.71619886e-01 1.06785618e-01 3.34429704e-02
      3.13599780e-02 6.31958395e-02 9.67594385e-02 9.28548351e-02
      8.03516209e-02 2.04065248e-01 2.71619886e-01 2.65718102e-01
      1.67692453e-01 1.42038330e-01 2.32313022e-01 1.52454302e-01
      1.27475694e-01 1.12702794e-01 2.45535955e-01 2.71619886e-01
      2.71619886e-01 2.05994636e-01 1.65472448e-01 2.57962167e-01
      6.69420138e-02 4.84639220e-02 7.93167874e-02 1.19345531e-01
      2.32411489e-01 1.31881207e-01 5.81609011e-02 2.25822423e-02
      4.90331948e-02 8.88929144e-02 7.15962350e-02 1.56921372e-01
      1.23591423e-01 2.32411489e-01 1.54820129e-01 7.95183927e-02
      3.38880531e-02 8.80073532e-02 1.98397174e-01 1.58325061e-01
      2.32411489e-01 2.13103414e-01 2.32411489e-01 2.32411489e-01
      1.94264308e-01 1.29842818e-01 1.82384923e-01 2.18435183e-01
      1.72358945e-01 2.32411489e-01 2.26501659e-01 2.32411489e-01
      2.32411489e-01 1.77614689e-01 1.05634443e-01 2.30771929e-01
      5.79143055e-02 6.22594133e-02 1.36443481e-01 1.85648769e-01
      2.69777447e-01 1.94133192e-01 7.28186220e-02 3.06211449e-02
      7.23477155e-02 5.33374473e-02 8.35865289e-02 1.70757040e-01
      2.69777447e-01 2.69777447e-01 2.41936728e-01 9.42389518e-02
      4.16083485e-02 6.83142915e-02 1.18423484e-01 1.06988586e-01
      2.33086765e-01 1.88690722e-01 2.69777447e-01 2.29401961e-01
      1.49207339e-01 8.18266422e-02 1.48280606e-01 6.57633170e-02
      7.82870203e-02 2.31649548e-01 2.69777447e-01 2.69777447e-01
      2.07719803e-01 9.31602269e-02 3.79883051e-02 4.45902199e-02</_>
    <_>
      1.64017841e-01 2.57976145e-01 2.26321936e-01 2.61230230e-01
      2.65487999e-01 1.53944656e-01 1.08121023e-01 1.03930153e-01
      7.31596276e-02 1.37982413e-01 1.71791792e-01 2.65487999e-01
      2.55605876e-01 2.65487999e-01 1.76824823e-01 1.24908738e-01
      9.26043242e-02 1.05831005e-01 8.25211853e-02 1.66357443e-01
      1.89013869e-01 2.31981501e-01 2.65487999e-01 1.14769131e-01
      4.85429615e-02 4.70896363e-02 4.32444997e-02 4.71931361e-02
      4.78274375e-02 7.91471824e-02 1.83151782e-01 2.65487999e-01
      9.15807113e-02 4.26401421e-02 3.31705101e-02 2.58101933e-02
      1.76333562e-01 1.47564322e-01 2.39005253e-01 2.39005253e-01
      2.39005253e-01 2.39005253e-01 2.12093070e-01 1.79482028e-01
      1.65954992e-01 1.55128404e-01 1.24701180e-01 1.74622253e-01
      2.39005253e-01 2.39005253e-01 2.39005253e-01 2.39005253e-01
      1.99547127e-01 1.75371140e-01 4.95584384e-02 4.90594059e-02
      6.30537793e-02 1.15247898e-01 2.39005253e-01 1.32808939e-01
      7.94967860e-02 6.16233200e-02 4.90367860e-02 7.23783821e-02
      5.02928272e-02 7.91236088e-02 1.21373251e-01 2.39005253e-01
      1.55575216e-01 1.06557108e-01 7.80769140e-02 7.34318867e-02
      5.29827140e-02 4.70410548e-02 8.02501887e-02 1.55105710e-01
      2.57054240e-01 2.16308326e-01 1.39400139e-01 8.64122957e-02
      9.36146230e-02 3.17693986e-02 7.61246588e-03 1.64854731e-02
      7.34264031e-02 2.80901343e-01 2.78753728e-01 1.15708731e-01
      7.24923536e-02 9.23996046e-02 6.48543015e-02 4.68339585e-02
      8.07502046e-02 2.03323171e-01 2.80901343e-01 2.70899713e-01
      1.52962923e-01 8.19911957e-02 1.02038614e-01 7.60752931e-02
      9.96086374e-02 6.68856874e-02 2.27942064e-01 2.80901343e-01
      2.80901343e-01 2.80901343e-01 1.68428048e-01 1.95741385e-01
      5.09395935e-02 5.17722256e-02 7.51607865e-02 2.01340139e-01
      3.77170563e-01 1.34506539e-01 4.28342894e-02 4.78117764e-02
      6.99270070e-02 2.50597242e-02 4.60658260e-02 4.59897332e-02
      2.82603085e-01 3.77170563e-01 8.73367488e-02 1.35919806e-02
      2.47475840e-02 2.29498558e-02 4.46471237e-02 5.31618558e-02
      6.63970634e-02 1.66749805e-01 3.77170563e-01 2.28635356e-01
      1.03241533e-01 8.10207278e-02 7.17928633e-02 2.63908207e-02
      4.52018455e-02 5.05697243e-02 3.50020528e-01 3.77170563e-01
      1.16489366e-01 2.39502359e-02 2.58027241e-02 2.54901815e-02
      4.94079851e-02 9.79266614e-02 6.17152750e-02 1.99531913e-01
      3.29835564e-01 1.91056699e-01 3.91001292e-02 6.56991079e-02
      5.61125055e-02 4.80843708e-02 6.41181394e-02 5.28515130e-02
      1.38681397e-01 3.29835564e-01 2.35218331e-01 6.27313852e-02
      7.20772967e-02 6.48346171e-02 7.30617419e-02 7.76002929e-02
      5.84865585e-02 2.59984553e-01 3.29835564e-01 2.76701421e-01
      9.53148082e-02 5.43321818e-02 8.40578824e-02 7.74311647e-02
      6.68090060e-02 6.91192299e-02 2.05304340e-01 3.29835564e-01
      3.07478189e-01 1.18202895e-01 7.65711293e-02 1.16084985e-01
      2.90753357e-02 4.55392525e-02 3.82643379e-02 1.32188275e-01
      3.37120414e-01 1.55041397e-01 8.50625411e-02 5.17925024e-02
      4.33126986e-02 7.46309757e-02 1.40632927e-01 7.75993839e-02
      1.75506249e-01 3.37120414e-01 2.58176535e-01 1.99986488e-01
      1.33309752e-01 1.02546431e-01 5.13399504e-02 6.54728934e-02
      6.88920394e-02 1.64741799e-01 3.37120414e-01 1.64626554e-01
      7.61429667e-02 4.05650586e-02 3.73155437e-02 1.28003031e-01
      1.91100046e-01 1.64791554e-01 1.95126414e-01 3.37120414e-01
      2.45149434e-01 1.49288654e-01 9.11531001e-02 6.04837574e-02
      6.55002818e-02 3.20086665e-02 4.09297794e-02 1.22179769e-01
      2.61465281e-01 1.95299685e-01 1.31110653e-01 8.91170800e-02
      1.04904428e-01 5.92962354e-02 3.02226041e-02 3.31413522e-02
      2.31271133e-01 2.61465281e-01 1.18617654e-01 3.40418294e-02
      3.47195081e-02 6.01519383e-02 1.32070854e-01 8.13251585e-02
      6.90091997e-02 1.79956645e-01 2.61465281e-01 2.61465281e-01
      1.65651351e-01 1.20260268e-01 2.07649991e-01 1.99185729e-01
      1.19838864e-01 1.40888453e-01 2.57960796e-01 2.61465281e-01
      2.61465281e-01 1.97980046e-01 1.84502304e-01 2.28139564e-01
      7.63687342e-02 4.53054570e-02 7.04221725e-02 1.32492244e-01
      2.31919363e-01 1.29721791e-01 5.30401096e-02 2.41689347e-02
      4.62774821e-02 9.27819833e-02 7.23109394e-02 1.42340407e-01
      1.50578186e-01 2.31919363e-01 1.51252106e-01 6.75766841e-02
      3.38756479e-02 8.20821002e-02 2.31919363e-01 1.39503598e-01
      2.29714766e-01 2.31919363e-01 2.31919363e-01 2.31919363e-01
      1.55440047e-01 1.55544490e-01 1.66805163e-01 2.31919363e-01
      1.55960396e-01 2.31919363e-01 2.31919363e-01 2.31919363e-01
      2.25572646e-01 1.29799038e-01 1.45422086e-01 2.30951756e-01
      6.26376644e-02 6.17292635e-02 1.26791075e-01 1.94646537e-01
      2.69038230e-01 1.96466416e-01 7.42990524e-02 3.22796851e-02
      6.14625327e-02 7.74916485e-02 1.07781626e-01 1.62283376e-01
      2.56573558e-01 2.69038230e-01 2.29594216e-01 9.95718241e-02
      5.37719168e-02 3.92262414e-02 1.12570710e-01 1.04444154e-01
      2.16501206e-01 2.17076614e-01 2.69038230e-01 2.45988742e-01
      1.27642721e-01 1.03260256e-01 1.50017753e-01 7.61688277e-02
      9.13190469e-02 2.13882148e-01 2.69038230e-01 2.69038230e-01
      2.24365935e-01 7.91760087e-02 4.39620353e-02 4.41188067e-02</_>
    <_>
      1.96434647e-01 2.49084637e-01 2.49084637e-01 2.49084637e-01
      2.49084637e-01 1.72484964e-01 2.39139184e-01 1.52240187e-01
      1.51377171e-01 1.39149919e-01 1.74734294e-01 2.49084637e-01
      2.29338795e-01 2.49084637e-01 1.66192949e-01 1.28990397e-01
      9.82287377e-02 1.08224273e-01 6.84713423e-02 1.74942032e-01
      1.77666366e-01 1.96747407e-01 2.49084637e-01 8.90308097e-02
      7.38810599e-02 4.11781445e-02 5.14902771e-02 3.87029089e-02
      5.29796369e-02 5.99573217e-02 1.45232499e-01 2.49084637e-01
      8.07411522e-02 3.32705528e-02 2.73919571e-02 2.77288891e-02
      1.97692350e-01 1.45686656e-01 2.26409912e-01 2.41054371e-01
      2.41054371e-01 2.41054371e-01 1.92184851e-01 1.78577662e-01
      1.66097373e-01 1.68471202e-01 1.32441238e-01 1.44902676e-01
      2.41054371e-01 2.41054371e-01 2.41054371e-01 2.41054371e-01
      1.99520946e-01 1.61781952e-01 5.82379624e-02 5.41320406e-02
      5.15628718e-02 1.20800257e-01 2.41054371e-01 1.43946305e-01
      6.66458979e-02 6.45978674e-02 5.25217280e-02 7.31801242e-02
      5.21147139e-02 7.64089003e-02 1.16382264e-01 2.41054371e-01
      1.63443729e-01 1.03404909e-01 8.94618705e-02 7.21863806e-02
      4.92209680e-02 5.29146865e-02 7.51323998e-02 1.46821931e-01
      2.67709017e-01 2.11386248e-01 1.32546529e-01 9.58184823e-02
      8.29480514e-02 2.72806827e-02 1.08700013e-02 1.67796873e-02
      6.51061386e-02 2.84284085e-01 2.80286044e-01 1.20566949e-01
      7.18054399e-02 9.63783935e-02 5.55538572e-02 4.10411544e-02
      7.90809393e-02 1.93451062e-01 2.84284085e-01 2.58666843e-01
      1.58831432e-01 8.70980993e-02 1.09047376e-01 6.73149154e-02
      8.62544104e-02 6.74653798e-02 2.20020890e-01 2.84284085e-01
      2.84284085e-01 2.84284085e-01 1.59763351e-01 2.17310190e-01
      6.20120876e-02 5.01853265e-02 8.80568475e-02 2.13118553e-01
      3.76038402e-01 1.41337022e-01 3.70862596e-02 3.27191539e-02
      6.24719672e-02 3.20256390e-02 5.22211045e-02 4.36852574e-02
      2.72495449e-01 3.76038402e-01 1.00183405e-01 1.17153274e-02
      2.39167046e-02 2.54650228e-02 1.02576412e-01 6.00605980e-02
      5.00448197e-02 1.58719987e-01 3.76038402e-01 2.35545889e-01
      5.69935068e-02 5.72774000e-02 1.24125183e-01 4.88573499e-02
      6.65272772e-02 3.96615379e-02 3.29263240e-01 3.76038402e-01
      1.21407598e-01 2.34328322e-02 1.64855178e-02 4.29816619e-02
      6.53345361e-02 1.10191487e-01 6.47923201e-02 1.96369439e-01
      3.26936811e-01 2.09774941e-01 2.72380821e-02 6.62303641e-02
      5.33329844e-02 5.89936040e-02 6.67104274e-02 6.86061978e-02
      1.19069293e-01 3.26936811e-01 2.32736796e-01 5.36665544e-02
      7.74501190e-02 5.76052368e-02 8.22650641e-02 1.08085804e-01
      6.23995923e-02 2.51995742e-01 3.26936811e-01 2.95784980e-01
      7.88452774e-02 5.47570772e-02 7.60107636e-02 8.11430886e-02
      7.61246458e-02 8.54523554e-02 1.80383384e-01 3.26936811e-01
      3.06760371e-01 9.75379422e-02 9.17587206e-02 1.10791273e-01
      2.89664641e-02 4.48143631e-02 3.85075286e-02 1.25850901e-01
      3.35616291e-01 1.45839691e-01 8.85615200e-02 5.27545623e-02
      4.15348001e-02 7.34352171e-02 1.39324084e-01 7.67716393e-02
      1.88005462e-01 3.35616291e-01 2.43204489e-01 2.05085635e-01
      1.31564528e-01 1.03762254e-01 4.66447361e-02 7.60540292e-02
      6.71638399e-02 1.58235967e-01 3.35616291e-01 1.51396140e-01
      7.15548322e-02 5.00764623e-02 3.57177071e-02 1.18994527e-01
      2.14614585e-01 1.55246228e-01 2.23028645e-01 3.35616291e-01
      2.39263728e-01 1.50587961e-01 1.01675406e-01 5.76041490e-02
      1.00977279e-01 3.84499282e-02 3.56964990e-02 1.24022067e-01
      2.61378795e-01 1.58851177e-01 8.15655813e-02 1.01622336e-01
      1.35655135e-01 5.98337129e-02 4.21125405e-02 2.59215739e-02
      2.27825716e-01 2.61378795e-01 1.15226611e-01 3.05967256e-02
      3.28031033e-02 6.56519160e-02 1.76645175e-01 8.88915882e-02
      8.62717479e-02 1.80618644e-01 2.61378795e-01 2.61378795e-01
      1.36074066e-01 1.35340601e-01 2.32895017e-01 1.89460397e-01
      1.29012838e-01 1.26524746e-01 2.61378795e-01 2.61378795e-01
      2.61378795e-01 1.86267659e-01 1.79166436e-01 2.17004210e-01
      6.64723143e-02 5.70972487e-02 7.01939315e-02 1.30052924e-01
      2.33189970e-01 1.27931267e-01 5.18594831e-02 2.20154803e-02
      5.42070530e-02 8.01205784e-02 7.32334629e-02 1.50038108e-01
      1.46764994e-01 2.33189970e-01 1.52813137e-01 5.90528473e-02
      4.46271114e-02 8.45208168e-02 2.20203683e-01 1.43352970e-01
      2.26456061e-01 2.33189970e-01 2.33189970e-01 2.33189970e-01
      1.61922157e-01 1.48607865e-01 1.89570650e-01 2.19551891e-01
      1.52272031e-01 2.33189970e-01 2.33189970e-01 2.33189970e-01
      2.30302185e-01 1.27548277e-01 1.38581887e-01 2.33189970e-01
      5.47278300e-02 6.51272610e-02 1.29043266e-01 1.94683120e-01
      2.66676515e-01 1.94266960e-01 6.82360679e-02 4.77487333e-02
      5.46279624e-02 6.81834444e-02 1.22567460e-01 1.52165473e-01
      2.66676515e-01 2.66676515e-01 2.17010111e-01 1.09962083e-01
      5.83094992e-02 3.56614366e-02 1.05526648e-01 1.01698466e-01
      2.30168685e-01 2.23896831e-01 2.66676515e-01 2.37626731e-01
      1.32877037e-01 1.06314965e-01 1.59257427e-01 7.85017461e-02
      9.00559723e-02 2.30347604e-01 2.66676515e-01 2.66676515e-01
      1.96614280e-01 9.65135694e-02 4.23498601e-02 4.50652502e-02</_>
    <_>
      1.59737840e-01 2.00242892e-01 2.40418002e-01 2.40418002e-01
      2.40418002e-01 2.40418002e-01 2.16446400e-01 2.38224924e-01
      2.37139255e-01 1.05306670e-01 1.44558311e-01 2.40418002e-01
      2.04072833e-01 2.40418002e-01 1.87755004e-01 1.01392634e-01
      1.39953434e-01 1.79124057e-01 7.66998976e-02 1.10915162e-01
      1.75736457e-01 1.60921976e-01 2.40418002e-01 1.11750238e-01
      6.70041293e-02 7.18829557e-02 7.77882859e-02 3.52654085e-02
      4.07015271e-02 6.95328414e-02 1.33534610e-01 2.40418002e-01
      8.29987377e-02 3.30982953e-02 3.29777934e-02 3.32655907e-02
      1.67853624e-01 1.43672660e-01 2.42013261e-01 2.42013261e-01
      2.42013261e-01 2.42013261e-01 1.84927106e-01 1.68438271e-01
      2.06317335e-01 1.56842753e-01 1.19037978e-01 1.48315653e-01
      2.42013261e-01 2.42013261e-01 2.34672159e-01 2.42013261e-01
      1.96720451e-01 1.82994053e-01 5.65114804e-02 4.86017130e-02
      5.82665093e-02 1.16433442e-01 2.42013261e-01 1.38884515e-01
      6.95864782e-02 6.42428845e-02 5.14589362e-02 7.15895817e-02
      4.69761714e-02 7.09982514e-02 1.26406848e-01 2.42013261e-01
      1.49908885e-01 1.02277406e-01 9.22427550e-02 7.25501999e-02
      5.55875786e-02 4.48558442e-02 7.37081543e-02 1.48760095e-01
      2.74146289e-01 2.11494565e-01 1.28246292e-01 9.24690142e-02
      8.95372257e-02 3.32839005e-02 7.24680396e-03 1.81695018e-02
      5.90225346e-02 2.85289198e-01 2.71222144e-01 1.15504190e-01
      7.27090985e-02 8.97646025e-02 6.31901473e-02 3.56506817e-02
